{"learner":{"attributes":{"scikit_learn":"{\"_estimator_type\": \"regressor\"}"},"feature_names":["Id","MSSubClass","LotFrontage","LotArea","LotShape","LandSlope","OverallQual","OverallCond","YearBuilt","YearRemodAdd","MasVnrArea","ExterQual","ExterCond","BsmtQual","BsmtCond","BsmtExposure","BsmtFinType1","BsmtFinSF1","BsmtFinType2","BsmtFinSF2","BsmtUnfSF","TotalBsmtSF","HeatingQC","1stFlrSF","2ndFlrSF","LowQualFinSF","GrLivArea","BsmtFullBath","BsmtHalfBath","FullBath","HalfBath","BedroomAbvGr","KitchenAbvGr","KitchenQual","TotRmsAbvGrd","Functional","Fireplaces","GarageYrBlt","GarageFinish","GarageCars","GarageArea","GarageQual","GarageCond","WoodDeckSF","OpenPorchSF","EnclosedPorch","3SsnPorch","ScreenPorch","PoolArea","MiscVal","MoSold","YrSold","MSZoning_C (all)","MSZoning_FV","MSZoning_RH","MSZoning_RL","MSZoning_RM","Street_Grvl","Street_Pave","Alley_Grvl","Alley_Pave","LandContour_Bnk","LandContour_HLS","LandContour_Low","LandContour_Lvl","Utilities_AllPub","Utilities_NoSeWa","LotConfig_Corner","LotConfig_CulDSac","LotConfig_FR2","LotConfig_FR3","LotConfig_Inside","Neighborhood_Blmngtn","Neighborhood_Blueste","Neighborhood_BrDale","Neighborhood_BrkSide","Neighborhood_ClearCr","Neighborhood_CollgCr","Neighborhood_Crawfor","Neighborhood_Edwards","Neighborhood_Gilbert","Neighborhood_IDOTRR","Neighborhood_MeadowV","Neighborhood_Mitchel","Neighborhood_NAmes","Neighborhood_NPkVill","Neighborhood_NWAmes","Neighborhood_NoRidge","Neighborhood_NridgHt","Neighborhood_OldTown","Neighborhood_SWISU","Neighborhood_Sawyer","Neighborhood_SawyerW","Neighborhood_Somerst","Neighborhood_StoneBr","Neighborhood_Timber","Neighborhood_Veenker","Condition1_Artery","Condition1_Feedr","Condition1_Norm","Condition1_PosA","Condition1_PosN","Condition1_RRAe","Condition1_RRAn","Condition1_RRNe","Condition1_RRNn","Condition2_Artery","Condition2_Feedr","Condition2_Norm","Condition2_PosA","Condition2_PosN","Condition2_RRAe","Condition2_RRAn","Condition2_RRNn","BldgType_1Fam","BldgType_2fmCon","BldgType_Duplex","BldgType_Twnhs","BldgType_TwnhsE","HouseStyle_1.5Fin","HouseStyle_1.5Unf","HouseStyle_1Story","HouseStyle_2.5Fin","HouseStyle_2.5Unf","HouseStyle_2Story","HouseStyle_SFoyer","HouseStyle_SLvl","RoofStyle_Flat","RoofStyle_Gable","RoofStyle_Gambrel","RoofStyle_Hip","RoofStyle_Mansard","RoofStyle_Shed","RoofMatl_ClyTile","RoofMatl_CompShg","RoofMatl_Membran","RoofMatl_Metal","RoofMatl_Roll","RoofMatl_Tar&Grv","RoofMatl_WdShake","RoofMatl_WdShngl","Exterior1st_AsbShng","Exterior1st_AsphShn","Exterior1st_BrkComm","Exterior1st_BrkFace","Exterior1st_CBlock","Exterior1st_CemntBd","Exterior1st_HdBoard","Exterior1st_ImStucc","Exterior1st_MetalSd","Exterior1st_Plywood","Exterior1st_Stone","Exterior1st_Stucco","Exterior1st_VinylSd","Exterior1st_Wd Sdng","Exterior1st_WdShing","Exterior2nd_AsbShng","Exterior2nd_AsphShn","Exterior2nd_Brk Cmn","Exterior2nd_BrkFace","Exterior2nd_CBlock","Exterior2nd_CmentBd","Exterior2nd_HdBoard","Exterior2nd_ImStucc","Exterior2nd_MetalSd","Exterior2nd_Other","Exterior2nd_Plywood","Exterior2nd_Stone","Exterior2nd_Stucco","Exterior2nd_VinylSd","Exterior2nd_Wd Sdng","Exterior2nd_Wd Shng","MasVnrType_BrkCmn","MasVnrType_BrkFace","MasVnrType_Stone","Foundation_BrkTil","Foundation_CBlock","Foundation_PConc","Foundation_Slab","Foundation_Stone","Foundation_Wood","Heating_Floor","Heating_GasA","Heating_GasW","Heating_Grav","Heating_OthW","Heating_Wall","CentralAir_N","CentralAir_Y","Electrical_FuseA","Electrical_FuseF","Electrical_FuseP","Electrical_Mix","Electrical_SBrkr","FireplaceQu_Ex","FireplaceQu_Fa","FireplaceQu_Gd","FireplaceQu_Po","FireplaceQu_TA","GarageType_2Types","GarageType_Attchd","GarageType_Basment","GarageType_BuiltIn","GarageType_CarPort","GarageType_Detchd","PavedDrive_N","PavedDrive_P","PavedDrive_Y","PoolQC_Ex","PoolQC_Fa","PoolQC_Gd","Fence_GdPrv","Fence_GdWo","Fence_MnPrv","Fence_MnWw","MiscFeature_Gar2","MiscFeature_Othr","MiscFeature_Shed","MiscFeature_TenC","SaleType_COD","SaleType_CWD","SaleType_Con","SaleType_ConLD","SaleType_ConLI","SaleType_ConLw","SaleType_New","SaleType_Oth","SaleType_WD","SaleCondition_Abnorml","SaleCondition_AdjLand","SaleCondition_Alloca","SaleCondition_Family","SaleCondition_Normal","SaleCondition_Partial"],"feature_types":["int","int","float","int","int","int","int","int","int","int","float","int","int","int","int","int","int","float","int","float","float","float","int","int","int","int","int","float","float","int","int","int","int","int","int","int","int","float","int","float","float","int","int","int","int","int","int","int","int","int","int","int","i","i","i","i","i","i","i","i","i","i","i","i","i","i","i","i","i","i","i","i","i","i","i","i","i","i","i","i","i","i","i","i","i","i","i","i","i","i","i","i","i","i","i","i","i","i","i","i","i","i","i","i","i","i","i","i","i","i","i","i","i","i","i","i","i","i","i","i","i","i","i","i","i","i","i","i","i","i","i","i","i","i","i","i","i","i","i","i","i","i","i","i","i","i","i","i","i","i","i","i","i","i","i","i","i","i","i","i","i","i","i","i","i","i","i","i","i","i","i","i","i","i","i","i","i","i","i","i","i","i","i","i","i","i","i","i","i","i","i","i","i","i","i","i","i","i","i","i","i","i","i","i","i","i","i","i","i","i","i","i","i","i","i","i","i","i","i","i","i","i","i","i","i","i","i","i","i","i","i","i","i","i"],"gradient_booster":{"model":{"gbtree_model_param":{"num_parallel_tree":"1","num_trees":"200"},"iteration_indptr":[0,1,2,3,4,5,6,7,8,9,10,11,12,13,14,15,16,17,18,19,20,21,22,23,24,25,26,27,28,29,30,31,32,33,34,35,36,37,38,39,40,41,42,43,44,45,46,47,48,49,50,51,52,53,54,55,56,57,58,59,60,61,62,63,64,65,66,67,68,69,70,71,72,73,74,75,76,77,78,79,80,81,82,83,84,85,86,87,88,89,90,91,92,93,94,95,96,97,98,99,100,101,102,103,104,105,106,107,108,109,110,111,112,113,114,115,116,117,118,119,120,121,122,123,124,125,126,127,128,129,130,131,132,133,134,135,136,137,138,139,140,141,142,143,144,145,146,147,148,149,150,151,152,153,154,155,156,157,158,159,160,161,162,163,164,165,166,167,168,169,170,171,172,173,174,175,176,177,178,179,180,181,182,183,184,185,186,187,188,189,190,191,192,193,194,195,196,197,198,199,200],"tree_info":[0,0,0,0,0,0,0,0,0,0,0,0,0,0,0,0,0,0,0,0,0,0,0,0,0,0,0,0,0,0,0,0,0,0,0,0,0,0,0,0,0,0,0,0,0,0,0,0,0,0,0,0,0,0,0,0,0,0,0,0,0,0,0,0,0,0,0,0,0,0,0,0,0,0,0,0,0,0,0,0,0,0,0,0,0,0,0,0,0,0,0,0,0,0,0,0,0,0,0,0,0,0,0,0,0,0,0,0,0,0,0,0,0,0,0,0,0,0,0,0,0,0,0,0,0,0,0,0,0,0,0,0,0,0,0,0,0,0,0,0,0,0,0,0,0,0,0,0,0,0,0,0,0,0,0,0,0,0,0,0,0,0,0,0,0,0,0,0,0,0,0,0,0,0,0,0,0,0,0,0,0,0,0,0,0,0,0,0,0,0,0,0,0,0,0,0,0,0,0,0],"trees":[{"base_weights":[1.3221888E3,-2.186738E4,1.2313591E5,-3.7996945E4,2.6387365E4,7.899593E4,1.7520183E5,-2.6809617E3,-6.173193E2,4.4818692E2,2.871366E3,2.618362E3,5.7009536E3,5.595265E3,1.0707776E4],"categories":[],"categories_nodes":[],"categories_segments":[],"categories_sizes":[],"default_left":[0,0,0,0,0,0,0,0,0,0,0,0,0,0,0],"id":0,"left_children":[1,3,5,7,9,11,13,-1,-1,-1,-1,-1,-1,-1,-1],"loss_changes":[2.649537E12,6.143251E11,3.3088812E11,2.3616376E11,1.065693E11,7.143663E10,1.4369777E11,0E0,0E0,0E0,0E0,0E0,0E0,0E0,0E0],"parents":[2147483647,0,0,1,1,2,2,3,3,4,4,5,5,6,6],"right_children":[2,4,6,8,10,12,14,-1,-1,-1,-1,-1,-1,-1,-1],"split_conditions":[8E0,7E0,1.97E3,1.412E3,1.829E3,7.89E2,1.456E3,-2.6809617E3,-6.173193E2,4.4818692E2,2.871366E3,2.618362E3,5.7009536E3,5.595265E3,1.0707776E4],"split_indices":[6,6,26,26,26,17,23,0,0,0,0,0,0,0,0],"split_type":[0,0,0,0,0,0,0,0,0,0,0,0,0,0,0],"sum_hessian":[9.36E2,7.87E2,1.49E2,5.9E2,1.97E2,8.2E1,6.7E1,3.66E2,2.24E2,1.27E2,7E1,4.8E1,3.4E1,2.7E1,4E1],"tree_param":{"num_deleted":"0","num_feature":"234","num_nodes":"15","size_leaf_vector":"1"}},{"base_weights":[-9.499261E2,-3.427872E4,5.056083E4,-5.715692E4,-5.5896113E3,2.395638E4,1.23270375E5,-3.5851335E3,-2.3186562E3,-6.547103E2,4.593187E3,7.419118E2,3.9257363E3,3.9952654E3,8.385166E3],"categories":[],"categories_nodes":[],"categories_segments":[],"categories_sizes":[],"default_left":[0,0,0,0,0,0,0,0,0,0,0,0,0,0,0],"id":1,"left_children":[1,3,5,7,9,11,13,-1,-1,-1,-1,-1,-1,-1,-1],"loss_changes":[1.5863316E12,3.6789577E11,6.992332E11,4.561463E10,1.8403987E11,1.3165973E11,1.7350276E11,0E0,0E0,0E0,0E0,0E0,0E0,0E0,0E0],"parents":[2147483647,0,0,1,1,2,2,3,3,4,4,5,5,6,6],"right_children":[2,4,6,8,10,12,14,-1,-1,-1,-1,-1,-1,-1,-1],"split_conditions":[1.985E3,1E0,3E0,8.15E2,1.771E3,9.43E2,7.67E2,-3.5851335E3,-2.3186562E3,-6.547103E2,4.593187E3,7.419118E2,3.9257363E3,3.9952654E3,8.385166E3],"split_indices":[8,36,39,21,23,17,17,0,0,0,0,0,0,0,0],"split_type":[0,0,0,0,0,0,0,0,0,0,0,0,0,0,0],"sum_hessian":[9.22E2,5.6E2,3.62E2,3.11E2,2.49E2,2.66E2,9.6E1,1.3E2,1.81E2,2.32E2,1.7E1,2.29E2,3.7E1,5E1,4.6E1],"tree_param":{"num_deleted":"0","num_feature":"234","num_nodes":"15","size_leaf_vector":"1"}},{"base_weights":[-1.4255069E2,-2.0581941E4,1.0532566E5,-4.407515E4,5.7276304E3,8.129952E4,1.6517142E5,-2.7111147E3,-8.988709E2,-5.8535474E2,1.531472E3,3.313315E3,6.731479E3,8.974206E3,1.1680413E3],"categories":[],"categories_nodes":[],"categories_segments":[],"categories_sizes":[],"default_left":[0,0,0,0,0,0,0,0,0,0,0,0,0,0,0],"id":2,"left_children":[1,3,5,7,9,11,13,-1,-1,-1,-1,-1,-1,-1,-1],"loss_changes":[1.9918843E12,4.7865882E11,2.0225091E11,1.0733565E11,1.5925974E11,7.846638E10,8.105414E10,0E0,0E0,0E0,0E0,0E0,0E0,0E0,0E0],"parents":[2147483647,0,0,1,1,2,2,3,3,4,4,5,5,6,6],"right_children":[2,4,6,8,10,12,14,-1,-1,-1,-1,-1,-1,-1,-1],"split_conditions":[8E0,1.422E3,9E0,1.146E3,7E0,1.2E3,1.15E2,-2.7111147E3,-8.988709E2,-5.8535474E2,1.531472E3,3.313315E3,6.731479E3,8.974206E3,1.1680413E3],"split_indices":[6,26,6,23,6,17,2,0,0,0,0,0,0,0,0],"split_type":[0,0,0,0,0,0,0,0,0,0,0,0,0,0,0],"sum_hessian":[9.22E2,7.73E2,1.49E2,4.08E2,3.65E2,1.08E2,4.1E1,2.93E2,1.15E2,2.15E2,1.5E2,8.6E1,2.2E1,3.7E1,4E0],"tree_param":{"num_deleted":"0","num_feature":"234","num_nodes":"15","size_leaf_vector":"1"}},{"base_weights":[-7.385247E2,-1.6333157E4,1.08298E5,-4.2527984E4,1.2014233E4,7.049358E4,1.7757719E5,-2.828524E3,-1.0710673E3,-4.149543E2,1.8784227E3,2.0254951E3,6.2814526E3,5.5329067E3,1.2461915E4],"categories":[],"categories_nodes":[],"categories_segments":[],"categories_sizes":[],"default_left":[0,0,0,0,0,0,0,0,0,0,0,0,0,0,0],"id":3,"left_children":[1,3,5,7,9,11,13,-1,-1,-1,-1,-1,-1,-1,-1],"loss_changes":[1.603531E12,6.131187E11,2.96531E11,1.2593948E11,2.063909E11,1.2385763E11,1.690349E11,0E0,0E0,0E0,0E0,0E0,0E0,0E0,0E0],"parents":[2147483647,0,0,1,1,2,2,3,3,4,4,5,5,6,6],"right_children":[2,4,6,8,10,12,14,-1,-1,-1,-1,-1,-1,-1,-1],"split_conditions":[3E0,1.414E3,2.217E3,1.01E3,3E0,1.698E3,1.465E3,-2.828524E3,-1.0710673E3,-4.149543E2,1.8784227E3,2.0254951E3,6.2814526E3,5.5329067E3,1.2461915E4],"split_indices":[39,26,26,21,11,21,23,0,0,0,0,0,0,0,0],"split_type":[0,0,0,0,0,0,0,0,0,0,0,0,0,0,0],"sum_hessian":[9.41E2,8.24E2,1.17E2,4.28E2,3.96E2,7.7E1,4E1,2.56E2,1.72E2,2.21E2,1.75E2,5.1E1,2.6E1,2.2E1,1.8E1],"tree_param":{"num_deleted":"0","num_feature":"234","num_nodes":"15","size_leaf_vector":"1"}},{"base_weights":[2.8602823E2,-1.8516828E4,1.0226342E5,-4.6080254E4,1.6478794E3,7.2275055E4,1.666317E5,-2.0311371E3,-3.8274187E3,-1.0671522E3,1.0493602E3,2.4393904E3,5.388028E3,5.9269688E3,1.0188668E4],"categories":[],"categories_nodes":[],"categories_segments":[],"categories_sizes":[],"default_left":[0,0,0,0,0,0,0,0,0,0,0,0,0,0,0],"id":4,"left_children":[1,3,5,7,9,11,13,-1,-1,-1,-1,-1,-1,-1,-1],"loss_changes":[1.7736324E12,4.3416237E11,2.6591979E11,5.1762823E10,2.0142021E11,7.808821E10,5.622504E10,0E0,0E0,0E0,0E0,0E0,0E0,0E0,0E0],"parents":[2147483647,0,0,1,1,2,2,3,3,4,4,5,5,6,6],"right_children":[2,4,6,8,10,12,14,-1,-1,-1,-1,-1,-1,-1,-1],"split_conditions":[8E0,6E0,9E0,1E0,1.494E3,1.97E3,2.019E3,-2.0311371E3,-3.8274187E3,-1.0671522E3,1.0493602E3,2.4393904E3,5.388028E3,5.9269688E3,1.0188668E4],"split_indices":[6,6,6,187,26,26,26,0,0,0,0,0,0,0,0],"split_type":[0,0,0,0,0,0,0,0,0,0,0,0,0,0,0],"sum_hessian":[9.23E2,7.8E2,1.43E2,3.29E2,4.51E2,9.9E1,4.4E1,2.81E2,4.8E1,2.06E2,2.45E2,6.1E1,3.8E1,2.1E1,2.3E1],"tree_param":{"num_deleted":"0","num_feature":"234","num_nodes":"15","size_leaf_vector":"1"}},{"base_weights":[-8.964781E2,-1.7589947E4,9.401742E4,-3.1762299E4,2.1481404E4,6.280995E4,1.4742261E5,-2.5575176E3,-7.9067596E2,3.408569E2,2.545946E3,7.0908417E2,3.5316277E3,6.1887095E3,1.4088305E4],"categories":[],"categories_nodes":[],"categories_segments":[],"categories_sizes":[],"default_left":[0,0,0,0,0,0,0,0,0,0,0,0,0,0,0],"id":5,"left_children":[1,3,5,7,9,11,13,-1,-1,-1,-1,-1,-1,-1,-1],"loss_changes":[1.514796E12,4.5086717E11,2.2906995E11,1.8379296E11,9.3327335E10,3.3995096E10,1.30329215E11,0E0,0E0,0E0,0E0,0E0,0E0,0E0,0E0],"parents":[2147483647,0,0,1,1,2,2,3,3,4,4,5,5,6,6],"right_children":[2,4,6,8,10,12,14,-1,-1,-1,-1,-1,-1,-1,-1],"split_conditions":[8E0,7E0,1.686E3,2E0,1.824E3,1.007E3,3E0,-2.5575176E3,-7.9067596E2,3.408569E2,2.545946E3,7.0908417E2,3.5316277E3,6.1887095E3,1.4088305E4],"split_indices":[6,6,23,39,26,23,29,0,0,0,0,0,0,0,0],"split_type":[0,0,0,0,0,0,0,0,0,0,0,0,0,0,0],"sum_hessian":[9.54E2,8.12E2,1.42E2,5.96E2,2.16E2,9.1E1,5.1E1,2.68E2,3.28E2,1.45E2,7.1E1,1.3E1,7.8E1,4.5E1,6E0],"tree_param":{"num_deleted":"0","num_feature":"234","num_nodes":"15","size_leaf_vector":"1"}},{"base_weights":[-1.1555055E2,-1.7509605E4,9.155659E4,-3.5576215E4,8.990132E3,6.1369324E4,1.3734083E5,-2.549076E3,-1.1034852E3,-1.306011E3,9.4320306E2,2.3461384E3,5.5154233E3,3.484961E3,7.9657915E3],"categories":[],"categories_nodes":[],"categories_segments":[],"categories_sizes":[],"default_left":[0,0,0,0,0,0,0,0,0,0,0,0,0,0,0],"id":6,"left_children":[1,3,5,7,9,11,13,-1,-1,-1,-1,-1,-1,-1,-1],"loss_changes":[1.4797514E12,3.7375292E11,1.9612251E11,9.542022E10,1.1038938E11,5.9161215E10,7.510832E10,0E0,0E0,0E0,0E0,0E0,0E0,0E0,0E0],"parents":[2147483647,0,0,1,1,2,2,3,3,4,4,5,5,6,6],"right_children":[2,4,6,8,10,12,14,-1,-1,-1,-1,-1,-1,-1,-1],"split_conditions":[8E0,1.484E3,1.686E3,2E0,6E0,2.372E3,3E0,-2.549076E3,-1.1034852E3,-1.306011E3,9.4320306E2,2.3461384E3,5.5154233E3,3.484961E3,7.9657915E3],"split_indices":[6,26,23,39,6,26,39,0,0,0,0,0,0,0,0],"split_type":[0,0,0,0,0,0,0,0,0,0,0,0,0,0,0],"sum_hessian":[9.26E2,7.79E2,1.47E2,4.63E2,3.16E2,9E1,5.7E1,2.15E2,2.48E2,6.9E1,2.47E2,7.1E1,1.9E1,1.5E1,4.2E1],"tree_param":{"num_deleted":"0","num_feature":"234","num_nodes":"15","size_leaf_vector":"1"}},{"base_weights":[1.0195152E3,-1.5622137E4,8.4754625E4,-4.1161004E4,2.6062556E3,5.0211707E4,1.11573586E5,-2.5570964E3,-1.090325E3,-1.2019103E3,7.30873E2,-9.804759E2,2.8531921E3,4.0089958E3,7.322832E3],"categories":[],"categories_nodes":[],"categories_segments":[],"categories_sizes":[],"default_left":[0,0,0,0,0,0,0,0,0,0,0,0,0,0,0],"id":7,"left_children":[1,3,5,7,9,11,13,-1,-1,-1,-1,-1,-1,-1,-1],"loss_changes":[1.3112052E12,3.655503E11,1.3891679E11,6.205322E10,1.4724609E11,3.460871E10,8.353153E10,0E0,0E0,0E0,0E0,0E0,0E0,0E0,0E0],"parents":[2147483647,0,0,1,1,2,2,3,3,4,4,5,5,6,6],"right_children":[2,4,6,8,10,12,14,-1,-1,-1,-1,-1,-1,-1,-1],"split_conditions":[8E0,6E0,3E0,9.99E2,2E0,7.8E2,1.2327E4,-2.5570964E3,-1.090325E3,-1.2019103E3,7.30873E2,-9.804759E2,2.8531921E3,4.0089958E3,7.322832E3],"split_indices":[6,6,39,21,29,21,3,0,0,0,0,0,0,0,0],"split_type":[0,0,0,0,0,0,0,0,0,0,0,0,0,0,0],"sum_hessian":[9.39E2,7.84E2,1.55E2,3.26E2,4.58E2,6.9E1,8.6E1,2.14E2,1.12E2,1.42E2,3.16E2,6E0,6.3E1,4.7E1,3.9E1],"tree_param":{"num_deleted":"0","num_feature":"234","num_nodes":"15","size_leaf_vector":"1"}},{"base_weights":[1.7814824E3,-1.4454857E4,8.3478766E4,-2.6411893E4,1.848238E4,6.0751152E4,1.4263928E5,-2.1758591E3,-6.764073E2,4.0763495E2,2.8844854E3,2.0477445E3,4.434726E3,7.6520835E3,-2.1802854E3],"categories":[],"categories_nodes":[],"categories_segments":[],"categories_sizes":[],"default_left":[0,0,0,0,0,0,0,0,0,0,0,0,0,0,0],"id":8,"left_children":[1,3,5,7,9,11,13,-1,-1,-1,-1,-1,-1,-1,-1],"loss_changes":[1.2321662E12,3.0570775E11,1.9839936E11,1.2480761E11,8.33645E10,5.887623E10,8.804401E10,0E0,0E0,0E0,0E0,0E0,0E0,0E0,0E0],"parents":[2147483647,0,0,1,1,2,2,3,3,4,4,5,5,6,6],"right_children":[2,4,6,8,10,12,14,-1,-1,-1,-1,-1,-1,-1,-1],"split_conditions":[8E0,7E0,9E0,2E0,1.987E3,1.96E3,2.62E2,-2.1758591E3,-6.764073E2,4.0763495E2,2.8844854E3,2.0477445E3,4.434726E3,7.6520835E3,-2.1802854E3],"split_indices":[6,6,6,39,26,26,44,0,0,0,0,0,0,0,0],"split_type":[0,0,0,0,0,0,0,0,0,0,0,0,0,0,0],"sum_hessian":[9.27E2,7.74E2,1.53E2,5.68E2,2.06E2,1.12E2,4.1E1,2.43E2,3.25E2,1.64E2,4.2E1,6.7E1,4.5E1,3.9E1,2E0],"tree_param":{"num_deleted":"0","num_feature":"234","num_nodes":"15","size_leaf_vector":"1"}},{"base_weights":[-7.175233E2,-2.4504086E4,4.2042965E4,-4.257277E4,-1.0733713E4,2.0360158E4,9.490859E4,-3.013599E3,-1.7878096E3,-1.2567987E3,1.4534474E2,-3.6042465E2,1.6878176E3,3.401304E3,7.8882593E3],"categories":[],"categories_nodes":[],"categories_segments":[],"categories_sizes":[],"default_left":[0,0,0,0,0,0,0,0,0,0,0,0,0,0,0],"id":9,"left_children":[1,3,5,7,9,11,13,-1,-1,-1,-1,-1,-1,-1,-1],"loss_changes":[9.418709E11,1.4758648E11,3.774848E11,2.8851438E10,6.66715E10,8.740165E10,1.5148325E11,0E0,0E0,0E0,0E0,0E0,0E0,0E0,0E0],"parents":[2147483647,0,0,1,1,2,2,3,3,4,4,5,5,6,6],"right_children":[2,4,6,8,10,12,14,-1,-1,-1,-1,-1,-1,-1,-1],"split_conditions":[3E0,2E0,3E0,6.84E2,1E0,9.79E2,1.844E3,-3.013599E3,-1.7878096E3,-1.2567987E3,1.4534474E2,-3.6042465E2,1.6878176E3,3.401304E3,7.8882593E3],"split_indices":[11,39,39,21,36,23,21,0,0,0,0,0,0,0,0],"split_type":[0,0,0,0,0,0,0,0,0,0,0,0,0,0,0],"sum_hessian":[9.24E2,5.94E2,3.3E2,2.56E2,3.38E2,2.35E2,9.5E1,6.9E1,1.87E2,1.64E2,1.74E2,7.7E1,1.58E2,6.8E1,2.7E1],"tree_param":{"num_deleted":"0","num_feature":"234","num_nodes":"15","size_leaf_vector":"1"}},{"base_weights":[-3.30933E2,-1.5040516E4,7.692092E4,-3.1612781E4,7.710859E3,5.4553746E4,1.3367017E5,-2.4865818E3,-1.0539987E3,-6.4348755E1,1.8442344E3,1.8608438E3,4.198142E3,7.187725E3,-2.2672107E3],"categories":[],"categories_nodes":[],"categories_segments":[],"categories_sizes":[],"default_left":[0,0,0,0,0,0,0,0,0,0,0,0,0,0,0],"id":10,"left_children":[1,3,5,7,9,11,13,-1,-1,-1,-1,-1,-1,-1,-1],"loss_changes":[1.07272785E12,2.9923797E11,1.8437518E11,8.654832E10,8.798541E10,5.2959937E10,8.233845E10,0E0,0E0,0E0,0E0,0E0,0E0,0E0,0E0],"parents":[2147483647,0,0,1,1,2,2,3,3,4,4,5,5,6,6],"right_children":[2,4,6,8,10,12,14,-1,-1,-1,-1,-1,-1,-1,-1],"split_conditions":[8E0,1.464E3,9E0,1.956E3,2.03E3,2.035E3,1E0,-2.4865818E3,-1.0539987E3,-6.4348755E1,1.8442344E3,1.8608438E3,4.198142E3,7.187725E3,-2.2672107E3],"split_indices":[6,26,6,8,26,26,61,0,0,0,0,0,0,0,0],"split_type":[0,0,0,0,0,0,0,0,0,0,0,0,0,0,0],"sum_hessian":[9.42E2,7.92E2,1.5E2,4.58E2,3.34E2,1.09E2,4.1E1,1.67E2,2.91E2,2.56E2,7.8E1,7E1,3.9E1,3.9E1,2E0],"tree_param":{"num_deleted":"0","num_feature":"234","num_nodes":"15","size_leaf_vector":"1"}},{"base_weights":[-1.2798094E3,-1.3881549E4,6.799415E4,-3.4681703E4,1.4587898E3,5.1265707E4,1.1362908E5,-2.6708796E3,-1.3915533E3,-1.01896185E3,5.587764E2,1.6687262E3,3.8653926E3,7.5041235E3,3.7569783E3],"categories":[],"categories_nodes":[],"categories_segments":[],"categories_sizes":[],"default_left":[0,0,0,0,0,0,0,0,0,0,0,0,0,0,0],"id":11,"left_children":[1,3,5,7,9,11,13,-1,-1,-1,-1,-1,-1,-1,-1],"loss_changes":[7.9971366E11,2.473387E11,1.0181424E11,4.074137E10,9.507864E10,4.6342013E10,4.063658E10,0E0,0E0,0E0,0E0,0E0,0E0,0E0,0E0],"parents":[2147483647,0,0,1,1,2,2,3,3,4,4,5,5,6,6],"right_children":[2,4,6,8,10,12,14,-1,-1,-1,-1,-1,-1,-1,-1],"split_conditions":[8E0,6E0,9E0,5E0,2E0,6.72E2,1.92E2,-2.6708796E3,-1.3915533E3,-1.01896185E3,5.587764E2,1.6687262E3,3.8653926E3,7.5041235E3,3.7569783E3],"split_indices":[6,6,6,6,29,17,43,0,0,0,0,0,0,0,0],"split_type":[0,0,0,0,0,0,0,0,0,0,0,0,0,0,0],"sum_hessian":[9.14E2,7.74E2,1.4E2,3.28E2,4.46E2,1.04E2,3.6E1,8.6E1,2.42E2,1.37E2,3.09E2,6.3E1,4.1E1,1.7E1,1.9E1],"tree_param":{"num_deleted":"0","num_feature":"234","num_nodes":"15","size_leaf_vector":"1"}},{"base_weights":[7.84104E2,-1.2261646E4,7.003514E4,-3.2635973E4,2.8557368E3,6.412196E4,1.3417878E4,-1.389192E3,-3.0293809E3,-1.3498727E2,2.3458403E3,1.6266898E3,4.2890957E3],"categories":[],"categories_nodes":[],"categories_segments":[],"categories_sizes":[],"default_left":[0,0,0,0,0,0,0,0,0,0,0,0,0],"id":12,"left_children":[1,3,5,7,9,11,-1,-1,-1,-1,-1,-1,-1],"loss_changes":[8.491812E11,2.4372632E11,1.5752718E11,4.4022268E10,1.1150178E11,9.7102135E10,0E0,0E0,0E0,0E0,0E0,0E0,0E0],"parents":[2147483647,0,0,1,1,2,2,3,3,4,4,5,5],"right_children":[2,4,6,8,10,12,-1,-1,-1,-1,-1,-1,-1],"split_conditions":[8E0,6E0,1.589E3,1E0,9.32E2,3E0,1.3417878E4,-1.389192E3,-3.0293809E3,-1.3498727E2,2.3458403E3,1.6266898E3,4.2890957E3],"split_indices":[6,6,24,187,24,39,0,0,0,0,0,0,0],"split_type":[0,0,0,0,0,0,0,0,0,0,0,0,0],"sum_hessian":[9.38E2,7.9E2,1.48E2,3.36E2,4.54E2,1.45E2,3E0,2.88E2,4.8E1,4.04E2,5E1,6E1,8.5E1],"tree_param":{"num_deleted":"0","num_feature":"234","num_nodes":"13","size_leaf_vector":"1"}},{"base_weights":[-1.6221399E3,-2.2559967E4,3.4699586E4,-3.588804E4,-1.1514062E4,2.4464951E4,1.0649056E5,-2.6306707E3,-1.5108789E3,-1.1377787E3,-1.6992275E1,6.726881E2,3.4420786E3,5.7719146E3,-2.4154666E3],"categories":[],"categories_nodes":[],"categories_segments":[],"categories_sizes":[],"default_left":[0,0,0,0,0,0,0,0,0,0,0,0,0,0,0],"id":13,"left_children":[1,3,5,7,9,11,13,-1,-1,-1,-1,-1,-1,-1,-1],"loss_changes":[7.050039E11,8.615251E10,2.4647647E11,2.3637754E10,4.056593E10,1.4468837E11,6.3751225E10,0E0,0E0,0E0,0E0,0E0,0E0,0E0,0E0],"parents":[2147483647,0,0,1,1,2,2,3,3,4,4,5,5,6,6],"right_children":[2,4,6,8,10,12,14,-1,-1,-1,-1,-1,-1,-1,-1],"split_conditions":[7E0,2E0,2.392E3,6.84E2,1E0,9.43E2,1E0,-2.6306707E3,-1.5108789E3,-1.1377787E3,-1.6992275E1,6.726881E2,3.4420786E3,5.7719146E3,-2.4154666E3],"split_indices":[6,39,26,21,36,17,79,0,0,0,0,0,0,0,0],"split_type":[0,0,0,0,0,0,0,0,0,0,0,0,0,0,0],"sum_hessian":[9.25E2,5.87E2,3.38E2,2.65E2,3.22E2,2.97E2,4.1E1,6.5E1,2E2,1.6E2,1.62E2,2.39E2,5.8E1,3.9E1,2E0],"tree_param":{"num_deleted":"0","num_feature":"234","num_nodes":"15","size_leaf_vector":"1"}},{"base_weights":[6.801574E2,-2.0698848E4,3.639225E4,-3.0492164E4,-6.580276E3,2.624483E4,1.23043805E5,-2.5644905E3,-1.2167006E3,-9.070801E2,2.2805809E2,9.23538E2,3.7798064E3,1.2802325E3,7.0839077E3],"categories":[],"categories_nodes":[],"categories_segments":[],"categories_sizes":[],"default_left":[0,0,0,0,0,0,0,0,0,0,0,0,0,0,0],"id":14,"left_children":[1,3,5,7,9,11,13,-1,-1,-1,-1,-1,-1,-1,-1],"loss_changes":[7.054537E11,7.971806E10,3.010051E11,4.2425516E10,3.0739474E10,1.1792209E11,6.1737992E10,0E0,0E0,0E0,0E0,0E0,0E0,0E0,0E0],"parents":[2147483647,0,0,1,1,2,2,3,3,4,4,5,5,6,6],"right_children":[2,4,6,8,10,12,14,-1,-1,-1,-1,-1,-1,-1,-1],"split_conditions":[7E0,1E0,9E0,5E0,1.0029E4,1.11E3,3E0,-2.5644905E3,-1.2167006E3,-9.070801E2,2.2805809E2,9.23538E2,3.7798064E3,1.2802325E3,7.0839077E3],"split_indices":[6,36,6,6,3,17,39,0,0,0,0,0,0,0,0],"split_type":[0,0,0,0,0,0,0,0,0,0,0,0,0,0,0],"sum_hessian":[9.22E2,5.77E2,3.45E2,3.4E2,2.37E2,3.1E2,3.5E1,7.6E1,2.64E2,1.16E2,1.21E2,2.69E2,4.1E1,6E0,2.9E1],"tree_param":{"num_deleted":"0","num_feature":"234","num_nodes":"15","size_leaf_vector":"1"}},{"base_weights":[1.1492656E3,-1.0568022E4,6.1501156E4,-2.313485E4,7.5908833E3,4.7262926E4,1.4348784E5,-1.5842533E3,-1.9868565E2,-3.8438168E1,1.4866842E3,1.7341663E3,4.6149595E3,7.718733E3,-2.1283845E3],"categories":[],"categories_nodes":[],"categories_segments":[],"categories_sizes":[],"default_left":[0,0,0,0,0,0,0,0,0,0,0,0,0,0,0],"id":15,"left_children":[1,3,5,7,9,11,13,-1,-1,-1,-1,-1,-1,-1,-1],"loss_changes":[6.611378E11,1.7885607E11,1.7065483E11,7.572824E10,5.944188E10,7.101527E10,5.1133514E10,0E0,0E0,0E0,0E0,0E0,0E0,0E0,0E0],"parents":[2147483647,0,0,1,1,2,2,3,3,4,4,5,5,6,6],"right_children":[2,4,6,8,10,12,14,-1,-1,-1,-1,-1,-1,-1,-1],"split_conditions":[8E0,1.484E3,2.62E3,1.085E3,5E0,1.277E3,1E0,-1.5842533E3,-1.9868565E2,-3.8438168E1,1.4866842E3,1.7341663E3,4.6149595E3,7.718733E3,-2.1283845E3],"split_indices":[6,26,26,21,16,17,61,0,0,0,0,0,0,0,0],"split_type":[0,0,0,0,0,0,0,0,0,0,0,0,0,0,0],"sum_hessian":[9.33E2,7.82E2,1.51E2,4.62E2,3.2E2,1.3E2,2.1E1,3.19E2,1.43E2,2.33E2,8.7E1,1.03E2,2.7E1,2E1,1E0],"tree_param":{"num_deleted":"0","num_feature":"234","num_nodes":"15","size_leaf_vector":"1"}},{"base_weights":[3.6393307E2,-1.9258531E4,3.318074E4,-3.2188953E4,-8.551597E3,2.0927105E4,8.466312E4,-2.3857734E3,-1.2075735E3,-9.2951904E2,2.2187842E2,5.898566E2,2.9904185E3,4.4781016E3,-2.4034072E3],"categories":[],"categories_nodes":[],"categories_segments":[],"categories_sizes":[],"default_left":[0,0,0,0,0,0,0,0,0,0,0,0,0,0,0],"id":16,"left_children":[1,3,5,7,9,11,13,-1,-1,-1,-1,-1,-1,-1,-1],"loss_changes":[5.937139E11,7.960763E10,2.1587021E11,3.141886E10,4.1417843E10,9.869021E10,4.7220883E10,0E0,0E0,0E0,0E0,0E0,0E0,0E0,0E0],"parents":[2147483647,0,0,1,1,2,2,3,3,4,4,5,5,6,6],"right_children":[2,4,6,8,10,12,14,-1,-1,-1,-1,-1,-1,-1,-1],"split_conditions":[7E0,1.224E3,2.217E3,7.99E2,4.28E2,1.652E3,1E0,-2.3857734E3,-1.2075735E3,-9.2951904E2,2.2187842E2,5.898566E2,2.9904185E3,4.4781016E3,-2.4034072E3],"split_indices":[6,26,26,21,17,23,61,0,0,0,0,0,0,0,0],"split_type":[0,0,0,0,0,0,0,0,0,0,0,0,0,0,0],"sum_hessian":[9.2E2,5.76E2,3.44E2,2.6E2,3.16E2,2.79E2,6.5E1,8.7E1,1.73E2,1.78E2,1.38E2,2.27E2,5.2E1,6.3E1,2E0],"tree_param":{"num_deleted":"0","num_feature":"234","num_nodes":"15","size_leaf_vector":"1"}},{"base_weights":[-1.3359723E2,-1.8060445E4,2.849924E4,-2.8250518E4,5.7028223E3,2.60111E4,1.2016534E4,-1.2282118E3,-2.61176E3,-7.870226E2,7.7337585E2,6.896485E2,2.6561572E3],"categories":[],"categories_nodes":[],"categories_segments":[],"categories_sizes":[],"default_left":[0,0,0,0,0,0,0,0,0,0,0,0,0],"id":17,"left_children":[1,3,5,7,9,11,-1,-1,-1,-1,-1,-1,-1],"loss_changes":[4.7326082E11,1.3745984E11,1.8085721E11,3.3817362E10,3.604864E10,1.1587025E11,0E0,0E0,0E0,0E0,0E0,0E0,0E0],"parents":[2147483647,0,0,1,1,2,2,3,3,4,4,5,5],"right_children":[2,4,6,8,10,12,-1,-1,-1,-1,-1,-1,-1],"split_conditions":[1.987E3,1.0708E4,1.589E3,1E0,1E0,2E2,1.2016534E4,-1.2282118E3,-2.61176E3,-7.870226E2,7.7337585E2,6.896485E2,2.6561572E3],"split_indices":[8,3,24,187,36,10,0,0,0,0,0,0,0],"split_type":[0,0,0,0,0,0,0,0,0,0,0,0,0],"sum_hessian":[9.2E2,5.66E2,3.54E2,3.96E2,1.7E2,3.51E2,3E0,3.45E2,5.1E1,5.3E1,1.17E2,2.43E2,1.08E2],"tree_param":{"num_deleted":"0","num_feature":"234","num_nodes":"13","size_leaf_vector":"1"}},{"base_weights":[1.6733694E2,-9.785078E3,5.473287E4,-2.1942686E4,8.235637E3,4.937319E4,1.1565915E4,-1.8019052E3,-7.126882E2,7.3143634E2,-8.832596E2,1.4887347E3,3.4553145E3],"categories":[],"categories_nodes":[],"categories_segments":[],"categories_sizes":[],"default_left":[0,0,0,0,0,0,0,0,0,0,0,0,0],"id":18,"left_children":[1,3,5,7,9,11,-1,-1,-1,-1,-1,-1,-1],"loss_changes":[5.1046777E11,1.743563E11,1.258131E11,5.0966135E10,5.3411635E10,5.285934E10,0E0,0E0,0E0,0E0,0E0,0E0,0E0],"parents":[2147483647,0,0,1,1,2,2,3,3,4,4,5,5],"right_children":[2,4,6,8,10,12,-1,-1,-1,-1,-1,-1,-1],"split_conditions":[8E0,1.484E3,1.589E3,1.956E3,7.5E1,1.92E3,1.1565915E4,-1.8019052E3,-7.126882E2,7.3143634E2,-8.832596E2,1.4887347E3,3.4553145E3],"split_indices":[6,26,24,8,1,26,0,0,0,0,0,0,0],"split_type":[0,0,0,0,0,0,0,0,0,0,0,0,0],"sum_hessian":[9.38E2,7.94E2,1.44E2,4.74E2,3.2E2,1.41E2,3E0,1.66E2,3.08E2,2.57E2,6.3E1,7.2E1,6.9E1],"tree_param":{"num_deleted":"0","num_feature":"234","num_nodes":"13","size_leaf_vector":"1"}},{"base_weights":[5.263482E2,-9.287929E3,5.446687E4,-2.8294863E4,3.789792E2,4.9272766E4,1.1132194E4,-2.333258E3,-1.0921484E3,-7.2216864E2,4.9283307E2,1.2494086E3,3.358693E3],"categories":[],"categories_nodes":[],"categories_segments":[],"categories_sizes":[],"default_left":[0,0,0,0,0,0,0,0,0,0,0,0,0],"id":19,"left_children":[1,3,5,7,9,11,-1,-1,-1,-1,-1,-1,-1],"loss_changes":[4.9177723E11,1.4442902E11,1.1394436E11,3.0389354E10,7.347372E10,5.9182416E10,0E0,0E0,0E0,0E0,0E0,0E0,0E0],"parents":[2147483647,0,0,1,1,2,2,3,3,4,4,5,5],"right_children":[2,4,6,8,10,12,-1,-1,-1,-1,-1,-1,-1],"split_conditions":[8E0,1.2E3,1.589E3,1.948E3,1.984E3,3E0,1.1132194E4,-2.333258E3,-1.0921484E3,-7.2216864E2,4.9283307E2,1.2494086E3,3.358693E3],"split_indices":[6,26,24,8,9,39,0,0,0,0,0,0,0],"split_type":[0,0,0,0,0,0,0,0,0,0,0,0,0],"sum_hessian":[9.27E2,7.85E2,1.42E2,2.64E2,5.21E2,1.39E2,3E0,6.7E1,1.97E2,2.03E2,3.18E2,6E1,7.9E1],"tree_param":{"num_deleted":"0","num_feature":"234","num_nodes":"13","size_leaf_vector":"1"}},{"base_weights":[4.216024E2,-1.2204644E4,3.9664992E4,-2.0016592E4,1.4730291E4,2.615458E4,1.0352334E5,-1.4763517E3,-5.113438E2,-3.5949072E2,1.1875731E3,7.79572E2,3.0665393E3,4.437507E3,1.0714736E4],"categories":[],"categories_nodes":[],"categories_segments":[],"categories_sizes":[],"default_left":[0,0,0,0,0,0,0,0,0,0,0,0,0,0,0],"id":20,"left_children":[1,3,5,7,9,11,13,-1,-1,-1,-1,-1,-1,-1,-1],"loss_changes":[4.70215E11,1.5137232E11,1.965882E11,5.1557253E10,3.2205464E10,7.0385435E10,4.643927E10,0E0,0E0,0E0,0E0,0E0,0E0,0E0,0E0],"parents":[2147483647,0,0,1,1,2,2,3,3,4,4,5,5,6,6],"right_children":[2,4,6,8,10,12,14,-1,-1,-1,-1,-1,-1,-1,-1],"split_conditions":[1.8E3,1.284E3,1.148E3,1E0,1.992E3,2.447E3,1.589E3,-1.4763517E3,-5.113438E2,-3.5949072E2,1.1875731E3,7.79572E2,3.0665393E3,4.437507E3,1.0714736E4],"split_indices":[26,21,17,200,9,26,24,0,0,0,0,0,0,0,0],"split_type":[0,0,0,0,0,0,0,0,0,0,0,0,0,0,0],"sum_hessian":[9.47E2,7.17E2,2.3E2,5.56E2,1.61E2,1.91E2,3.9E1,2.81E2,2.75E2,4.7E1,1.14E2,1.48E2,4.3E1,3.6E1,3E0],"tree_param":{"num_deleted":"0","num_feature":"234","num_nodes":"15","size_leaf_vector":"1"}},{"base_weights":[2.5096216E2,-1.0787689E4,3.5534105E4,-1.825998E4,1.350582E4,7.7628545E3,5.9109938E4,-1.351202E3,-4.6010825E2,-2.9970068E2,1.0759102E3,-1.9044805E3,7.365887E2,2.7307473E3,8.846733E3],"categories":[],"categories_nodes":[],"categories_segments":[],"categories_sizes":[],"default_left":[0,0,0,0,0,0,0,0,0,0,0,0,0,0,0],"id":21,"left_children":[1,3,5,7,9,11,13,-1,-1,-1,-1,-1,-1,-1,-1],"loss_changes":[3.6610346E11,1.30220786E11,1.4620072E11,4.3253318E10,2.6533566E10,3.379351E10,5.4420865E10,0E0,0E0,0E0,0E0,0E0,0E0,0E0,0E0],"parents":[2147483647,0,0,1,1,2,2,3,3,4,4,5,5,6,6],"right_children":[2,4,6,8,10,12,14,-1,-1,-1,-1,-1,-1,-1,-1],"split_conditions":[1.8E3,1.284E3,1.092E3,1E0,1.993E3,1.913E3,1.589E3,-1.351202E3,-4.6010825E2,-2.9970068E2,1.0759102E3,-1.9044805E3,7.365887E2,2.7307473E3,8.846733E3],"split_indices":[26,21,21,200,9,8,24,0,0,0,0,0,0,0,0],"split_type":[0,0,0,0,0,0,0,0,0,0,0,0,0,0,0],"sum_hessian":[9.38E2,7.15E2,2.23E2,5.47E2,1.68E2,1.03E2,1.2E2,2.77E2,2.7E2,4.9E1,1.19E2,1.3E1,9E1,1.17E2,3E0],"tree_param":{"num_deleted":"0","num_feature":"234","num_nodes":"15","size_leaf_vector":"1"}},{"base_weights":[-4.6125467E2,-1.4975074E4,2.5665018E4,-3.0180047E4,-8.344062E3,1.2535499E4,5.7073703E4,-1.2651143E3,-2.304986E3,-9.532575E2,7.15859E1,2.841686E2,1.8505553E3,3.1050823E3,-1.476687E3],"categories":[],"categories_nodes":[],"categories_segments":[],"categories_sizes":[],"default_left":[0,0,0,0,0,0,0,0,0,0,0,0,0,0,0],"id":22,"left_children":[1,3,5,7,9,11,13,-1,-1,-1,-1,-1,-1,-1,-1],"loss_changes":[3.5037856E11,5.963786E10,1.3537026E11,1.2810994E10,4.3522204E10,3.903378E10,4.407345E10,0E0,0E0,0E0,0E0,0E0,0E0,0E0,0E0],"parents":[2147483647,0,0,1,1,2,2,3,3,4,4,5,5,6,6],"right_children":[2,4,6,8,10,12,14,-1,-1,-1,-1,-1,-1,-1,-1],"split_conditions":[3E0,2.99E2,6.71E2,1E0,6E0,8.36E2,1.2E2,-1.2651143E3,-2.304986E3,-9.532575E2,7.15859E1,2.841686E2,1.8505553E3,3.1050823E3,-1.476687E3],"split_indices":[11,40,40,187,6,17,2,0,0,0,0,0,0,0,0],"split_type":[0,0,0,0,0,0,0,0,0,0,0,0,0,0,0],"sum_hessian":[9.22E2,5.93E2,3.29E2,1.79E2,4.14E2,2.33E2,9.6E1,1.39E2,4E1,1.97E2,2.17E2,1.83E2,5E1,9.1E1,5E0],"tree_param":{"num_deleted":"0","num_feature":"234","num_nodes":"15","size_leaf_vector":"1"}},{"base_weights":[2.7779697E2,-1.4126522E4,2.3624695E4,-1.0800009E4,-4.0373387E4,1.3182252E4,5.622619E4,-6.502465E2,1.4400894E3,-2.0786792E3,9.4098206E2,2.202144E2,1.9538514E3,2.9741377E3,-2.7935298E3],"categories":[],"categories_nodes":[],"categories_segments":[],"categories_sizes":[],"default_left":[0,0,0,0,0,0,0,0,0,0,0,0,0,0,0],"id":23,"left_children":[1,3,5,7,9,11,13,-1,-1,-1,-1,-1,-1,-1,-1],"loss_changes":[3.20824E11,5.1077194E10,1.2317871E11,4.6216933E10,5.4712484E9,6.279094E10,3.5447734E10,0E0,0E0,0E0,0E0,0E0,0E0,0E0,0E0],"parents":[2147483647,0,0,1,1,2,2,3,3,4,4,5,5,6,6],"right_children":[2,4,6,8,10,12,14,-1,-1,-1,-1,-1,-1,-1,-1],"split_conditions":[7E0,1E0,2.094E3,1.987E3,2.64E2,7.89E2,1.81E3,-6.502465E2,1.4400894E3,-2.0786792E3,9.4098206E2,2.202144E2,1.9538514E3,2.9741377E3,-2.7935298E3],"split_indices":[6,187,26,26,45,17,17,0,0,0,0,0,0,0,0],"split_type":[0,0,0,0,0,0,0,0,0,0,0,0,0,0,0],"sum_hessian":[9.52E2,5.89E2,3.63E2,5.24E2,6.5E1,2.76E2,8.7E1,4.97E2,2.7E1,6.4E1,1E0,2.07E2,6.9E1,8.5E1,2E0],"tree_param":{"num_deleted":"0","num_feature":"234","num_nodes":"15","size_leaf_vector":"1"}},{"base_weights":[-3.4830133E2,-7.494091E3,3.669927E4,-2.1715115E4,7.856511E2,1.9351848E4,5.5705402E4,-1.6083544E3,-6.0071014E2,-1.7377519E2,1.1092318E3,-3.2660266E2,1.4864388E3,1.4399208E3,4.0906218E3],"categories":[],"categories_nodes":[],"categories_segments":[],"categories_sizes":[],"default_left":[0,0,0,0,0,0,0,0,0,0,0,0,0,0,0],"id":24,"left_children":[1,3,5,7,9,11,13,-1,-1,-1,-1,-1,-1,-1,-1],"loss_changes":[2.4886038E11,9.280123E10,4.9037525E10,2.901771E10,4.5578113E10,2.1950409E10,4.822116E10,0E0,0E0,0E0,0E0,0E0,0E0,0E0,0E0],"parents":[2147483647,0,0,1,1,2,2,3,3,4,4,5,5,6,6],"right_children":[2,4,6,8,10,12,14,-1,-1,-1,-1,-1,-1,-1,-1],"split_conditions":[8E0,1.224E3,1.92E3,8.66E2,1.987E3,1.373E3,1.465E3,-1.6083544E3,-6.0071014E2,-1.7377519E2,1.1092318E3,-3.2660266E2,1.4864388E3,1.4399208E3,4.0906218E3],"split_indices":[6,26,26,21,26,21,23,0,0,0,0,0,0,0,0],"split_type":[0,0,0,0,0,0,0,0,0,0,0,0,0,0,0],"sum_hessian":[9.38E2,7.87E2,1.51E2,2.89E2,4.98E2,8E1,7.1E1,1.38E2,1.51E2,4.16E2,8.2E1,2.3E1,5.7E1,3.6E1,3.5E1],"tree_param":{"num_deleted":"0","num_feature":"234","num_nodes":"15","size_leaf_vector":"1"}},{"base_weights":[8.03897E1,-1.2672314E4,2.123968E4,-2.211042E4,-4.2426577E3,1.5073548E4,7.128898E4,-9.2818604E2,-2.0883196E3,-6.5473926E2,1.3220314E2,-2.621876E2,1.1281499E3,4.202955E3,-1.6179846E3],"categories":[],"categories_nodes":[],"categories_segments":[],"categories_sizes":[],"default_left":[0,0,0,0,0,0,0,0,0,0,0,0,0,0,0],"id":25,"left_children":[1,3,5,7,9,11,13,-1,-1,-1,-1,-1,-1,-1,-1],"loss_changes":[2.5688526E11,4.7164834E10,1.0940803E11,1.8744533E10,1.9237691E10,4.8811254E10,5.434078E10,0E0,0E0,0E0,0E0,0E0,0E0,0E0,0E0],"parents":[2147483647,0,0,1,1,2,2,3,3,4,4,5,5,6,6],"right_children":[2,4,6,8,10,12,14,-1,-1,-1,-1,-1,-1,-1,-1],"split_conditions":[3E0,9.018E3,9E0,1E0,3E0,9.79E2,1.2E2,-9.2818604E2,-2.0883196E3,-6.5473926E2,1.3220314E2,-2.621876E2,1.1281499E3,4.202955E3,-1.6179846E3],"split_indices":[11,3,6,187,16,23,2,0,0,0,0,0,0,0,0],"split_type":[0,0,0,0,0,0,0,0,0,0,0,0,0,0,0],"sum_hessian":[9.5E2,5.93E2,3.57E2,2.79E2,3.14E2,3.19E2,3.8E1,2.38E2,4.1E1,1.37E2,1.77E2,8.6E1,2.33E2,3.4E1,4E0],"tree_param":{"num_deleted":"0","num_feature":"234","num_nodes":"15","size_leaf_vector":"1"}},{"base_weights":[1.0548318E3,-6.8102827E3,4.173666E4,-2.1096506E4,2.6368389E3,2.9327945E4,9.978868E4,-1.7777158E3,-8.5116895E2,-7.952998E1,1.7884247E3,9.9384766E2,3.1447686E3,2.8923936E3,6.863982E3],"categories":[],"categories_nodes":[],"categories_segments":[],"categories_sizes":[],"default_left":[0,0,0,0,0,0,0,0,0,0,0,0,0,0,0],"id":26,"left_children":[1,3,5,7,9,11,13,-1,-1,-1,-1,-1,-1,-1,-1],"loss_changes":[2.9625395E11,1.0478743E11,1.0512602E11,1.7591288E10,6.5605923E10,3.840552E10,3.294108E10,0E0,0E0,0E0,0E0,0E0,0E0,0E0,0E0],"parents":[2147483647,0,0,1,1,2,2,3,3,4,4,5,5,6,6],"right_children":[2,4,6,8,10,12,14,-1,-1,-1,-1,-1,-1,-1,-1],"split_conditions":[1.97E3,1E0,1.219E3,5E0,1.11E3,3.78E2,1.4859E4,-1.7777158E3,-8.5116895E2,-7.952998E1,1.7884247E3,9.9384766E2,3.1447686E3,2.8923936E3,6.863982E3],"split_indices":[26,200,17,6,17,10,3,0,0,0,0,0,0,0,0],"split_type":[0,0,0,0,0,0,0,0,0,0,0,0,0,0,0],"sum_hessian":[9.24E2,7.75E2,1.49E2,3.08E2,4.67E2,1.24E2,2.5E1,6.6E1,2.42E2,4.15E2,5.2E1,9.8E1,2.6E1,1.3E1,1.2E1],"tree_param":{"num_deleted":"0","num_feature":"234","num_nodes":"15","size_leaf_vector":"1"}},{"base_weights":[2.63079E2,-8.807743E3,2.8299027E4,-2.127382E4,-2.807547E2,1.1661911E4,5.7824707E4,-1.3640833E3,-7.320988E2,-3.907302E2,4.7675644E2,-1.6235126E3,8.795792E2,1.6369491E3,4.2643545E3],"categories":[],"categories_nodes":[],"categories_segments":[],"categories_sizes":[],"default_left":[0,0,0,0,0,0,0,0,0,0,0,0,0,0,0],"id":27,"left_children":[1,3,5,7,9,11,13,-1,-1,-1,-1,-1,-1,-1,-1],"loss_changes":[2.4031705E11,7.5890885E10,1.12797975E11,1.1155022E10,3.1503854E10,3.956291E10,5.438764E10,0E0,0E0,0E0,0E0,0E0,0E0,0E0,0E0],"parents":[2147483647,0,0,1,1,2,2,3,3,4,4,5,5,6,6],"right_children":[2,4,6,8,10,12,14,-1,-1,-1,-1,-1,-1,-1,-1],"split_conditions":[1.8E3,1E0,1.425E3,1.974E3,1.993E3,1.918E3,3E0,-1.3640833E3,-7.320988E2,-3.907302E2,4.7675644E2,-1.6235126E3,8.795792E2,1.6369491E3,4.2643545E3],"split_indices":[26,200,23,9,8,8,39,0,0,0,0,0,0,0,0],"split_type":[0,0,0,0,0,0,0,0,0,0,0,0,0,0,0],"sum_hessian":[9.43E2,7.13E2,2.3E2,2.89E2,4.24E2,1.48E2,8.2E1,1.5E2,1.39E2,2.4E2,1.84E2,1.7E1,1.31E2,4.4E1,3.8E1],"tree_param":{"num_deleted":"0","num_feature":"234","num_nodes":"15","size_leaf_vector":"1"}},{"base_weights":[6.9699615E1,-6.672824E3,3.505746E4,-1.9215326E4,2.0490862E2,2.694255E4,8.285036E4,-1.8245375E3,-7.580046E2,2.841639E2,-7.4156274E2,8.5841547E2,3.2313672E3,5.069623E3,-3.1099873E3],"categories":[],"categories_nodes":[],"categories_segments":[],"categories_sizes":[],"default_left":[0,0,0,0,0,0,0,0,0,0,0,0,0,0,0],"id":28,"left_children":[1,3,5,7,9,11,13,-1,-1,-1,-1,-1,-1,-1,-1],"loss_changes":[2.1608777E11,6.6254668E10,5.5167386E10,1.8501992E10,4.1024E10,4.6038016E10,6.278678E10,0E0,0E0,0E0,0E0,0E0,0E0,0E0,0E0],"parents":[2147483647,0,0,1,1,2,2,3,3,4,4,5,5,6,6],"right_children":[2,4,6,8,10,12,14,-1,-1,-1,-1,-1,-1,-1,-1],"split_conditions":[8E0,2E0,2.601E3,6.44E2,1E0,1.277E3,1.2E2,-1.8245375E3,-7.580046E2,2.841639E2,-7.4156274E2,8.5841547E2,3.2313672E3,5.069623E3,-3.1099873E3],"split_indices":[6,39,26,21,204,17,2,0,0,0,0,0,0,0,0],"split_type":[0,0,0,0,0,0,0,0,0,0,0,0,0,0,0],"sum_hessian":[9.14E2,7.67E2,1.47E2,2.71E2,4.96E2,1.27E2,2E1,5E1,2.21E2,3.64E2,1.32E2,1.02E2,2.5E1,1.8E1,2E0],"tree_param":{"num_deleted":"0","num_feature":"234","num_nodes":"15","size_leaf_vector":"1"}},{"base_weights":[-2.1471362E2,-7.2081104E3,2.868226E4,-1.149409E4,1.54605E4,1.5466155E4,6.3263453E4,-1.9553655E3,-4.7076587E2,-2.0212584E2,1.4488633E3,2.114973E2,1.4132601E3,3.4828665E3,-3.006321E3],"categories":[],"categories_nodes":[],"categories_segments":[],"categories_sizes":[],"default_left":[0,0,0,0,0,0,0,0,0,0,0,0,0,0,0],"id":29,"left_children":[1,3,5,7,9,11,13,-1,-1,-1,-1,-1,-1,-1,-1],"loss_changes":[1.8875484E11,7.323992E10,8.220079E10,3.5967E10,3.1751266E10,1.900754E10,4.3635212E10,0E0,0E0,0E0,0E0,0E0,0E0,0E0,0E0],"parents":[2147483647,0,0,1,1,2,2,3,3,4,4,5,5,6,6],"right_children":[2,4,6,8,10,12,14,-1,-1,-1,-1,-1,-1,-1,-1],"split_conditions":[1.417E3,1.924E3,1.889E3,5E0,1.993E3,7.84E2,2.82E2,-1.9553655E3,-4.7076587E2,-2.0212584E2,1.4488633E3,2.114973E2,1.4132601E3,3.4828665E3,-3.006321E3],"split_indices":[21,26,26,7,9,17,44,0,0,0,0,0,0,0,0],"split_type":[0,0,0,0,0,0,0,0,0,0,0,0,0,0,0],"sum_hessian":[9.32E2,7.51E2,1.81E2,6.32E2,1.19E2,1.32E2,4.9E1,4.3E1,5.89E2,4.9E1,7E1,7.1E1,6.1E1,4.7E1,2E0],"tree_param":{"num_deleted":"0","num_feature":"234","num_nodes":"15","size_leaf_vector":"1"}},{"base_weights":[1.7269068E1,-7.6732563E3,2.4134412E4,-1.8488562E4,-3.2770515E1,1.6854143E4,6.126083E4,-1.1344554E3,-3.8085382E2,-1.3650269E2,1.4857673E3,4.6777667E2,2.0570847E3,3.2876484E3,-2.5114102E3],"categories":[],"categories_nodes":[],"categories_segments":[],"categories_sizes":[],"default_left":[0,0,0,0,0,0,0,0,0,0,0,0,0,0,0],"id":30,"left_children":[1,3,5,7,9,11,13,-1,-1,-1,-1,-1,-1,-1,-1],"loss_changes":[1.7490123E11,5.9082846E10,6.05937E10,1.3344367E10,3.3781543E10,3.4582688E10,2.1833187E10,0E0,0E0,0E0,0E0,0E0,0E0,0E0,0E0],"parents":[2147483647,0,0,1,1,2,2,3,3,4,4,5,5,6,6],"right_children":[2,4,6,8,10,12,14,-1,-1,-1,-1,-1,-1,-1,-1],"split_conditions":[1.824E3,1E0,1.11E3,4.98E2,2.007E3,2.003E3,2.08E2,-1.1344554E3,-3.8085382E2,-1.3650269E2,1.4857673E3,4.6777667E2,2.0570847E3,3.2876484E3,-2.5114102E3],"split_indices":[26,200,17,17,8,8,44,0,0,0,0,0,0,0,0],"split_type":[0,0,0,0,0,0,0,0,0,0,0,0,0,0,0],"sum_hessian":[9.41E2,7.14E2,2.27E2,2.95E2,4.19E2,1.91E2,3.6E1,2.12E2,8.3E1,3.85E2,3.4E1,1.47E2,4.4E1,3.5E1,1E0],"tree_param":{"num_deleted":"0","num_feature":"234","num_nodes":"15","size_leaf_vector":"1"}},{"base_weights":[-1.3030101E2,-1.0364801E4,1.5114622E4,-1.8230285E4,5.71768E2,5.824486E3,3.863011E4,-1.2131571E3,-5.394441E2,-4.552981E2,5.203672E2,1.8127346E3,1.6478139E2,1.6212314E3,4.5201743E3],"categories":[],"categories_nodes":[],"categories_segments":[],"categories_sizes":[],"default_left":[0,0,0,0,0,0,0,0,0,0,0,0,0,0,0],"id":31,"left_children":[1,3,5,7,9,11,13,-1,-1,-1,-1,-1,-1,-1,-1],"loss_changes":[1.4837962E11,4.89566E10,8.322753E10,1.4597792E10,2.2844234E10,2.1042778E10,3.176679E10,0E0,0E0,0E0,0E0,0E0,0E0,0E0,0E0],"parents":[2147483647,0,0,1,1,2,2,3,3,4,4,5,5,6,6],"right_children":[2,4,6,8,10,12,14,-1,-1,-1,-1,-1,-1,-1,-1],"split_conditions":[1.106E3,1E0,1.839E3,3E0,1.674E3,1E0,2.008E3,-1.2131571E3,-5.394441E2,-4.552981E2,5.203672E2,1.8127346E3,1.6478139E2,1.6212314E3,4.5201743E3],"split_indices":[21,30,26,16,26,64,37,0,0,0,0,0,0,0,0],"split_type":[0,0,0,0,0,0,0,0,0,0,0,0,0,0,0],"sum_hessian":[9.49E2,5.68E2,3.81E2,3.3E2,2.38E2,2.74E2,1.07E2,1.81E2,1.49E2,1.2E2,1.18E2,2E1,2.54E2,9.7E1,1E1],"tree_param":{"num_deleted":"0","num_feature":"234","num_nodes":"15","size_leaf_vector":"1"}},{"base_weights":[6.888448E2,-7.51321E3,2.5504162E4,-1.3361243E4,5.025724E3,1.6201062E4,7.257259E4,-9.9491846E2,-2.1876541E2,-6.026147E2,4.8759225E2,5.361806E2,3.05375E3,4.0739497E3,-2.9247532E3],"categories":[],"categories_nodes":[],"categories_segments":[],"categories_sizes":[],"default_left":[0,0,0,0,0,0,0,0,0,0,0,0,0,0,0],"id":32,"left_children":[1,3,5,7,9,11,13,-1,-1,-1,-1,-1,-1,-1,-1],"loss_changes":[1.9009126E11,5.1543486E10,1.0041295E11,2.8050448E10,1.8197193E10,4.7275037E10,4.9125065E10,0E0,0E0,0E0,0E0,0E0,0E0,0E0,0E0],"parents":[2147483647,0,0,1,1,2,2,3,3,4,4,5,5,6,6],"right_children":[2,4,6,8,10,12,14,-1,-1,-1,-1,-1,-1,-1,-1],"split_conditions":[1.8E3,1.993E3,1.148E3,4.98E2,5E3,2.643E3,2.82E2,-9.9491846E2,-2.1876541E2,-6.026147E2,4.8759225E2,5.361806E2,3.05375E3,4.0739497E3,-2.9247532E3],"split_indices":[26,8,17,17,3,26,44,0,0,0,0,0,0,0,0],"split_type":[0,0,0,0,0,0,0,0,0,0,0,0,0,0,0],"sum_hessian":[9.32E2,7.01E2,2.31E2,4.78E2,2.23E2,1.94E2,3.7E1,2.76E2,2.02E2,4.8E1,1.75E2,1.74E2,2E1,3.5E1,2E0],"tree_param":{"num_deleted":"0","num_feature":"234","num_nodes":"15","size_leaf_vector":"1"}},{"base_weights":[-7.9964795E2,-6.752237E3,2.4821043E4,-1.15645E4,8.209607E3,1.6320427E4,7.868664E4,-9.703781E2,-3.0636887E2,6.072392E2,-1.3612412E3,4.8556055E2,2.1222012E3,4.8776753E3,-2.0018036E3],"categories":[],"categories_nodes":[],"categories_segments":[],"categories_sizes":[],"default_left":[0,0,0,0,0,0,0,0,0,0,0,0,0,0,0],"id":33,"left_children":[1,3,5,7,9,11,13,-1,-1,-1,-1,-1,-1,-1,-1],"loss_changes":[1.43984E11,5.5247192E10,8.022036E10,2.4614429E10,2.6406048E10,2.6349576E10,5.7663865E10,0E0,0E0,0E0,0E0,0E0,0E0,0E0,0E0],"parents":[2147483647,0,0,1,1,2,2,3,3,4,4,5,5,6,6],"right_children":[2,4,6,8,10,12,14,-1,-1,-1,-1,-1,-1,-1,-1],"split_conditions":[1.417E3,7.79E2,2.263E3,3.84E2,1E0,1E0,1E0,-9.703781E2,-3.0636887E2,6.072392E2,-1.3612412E3,4.8556055E2,2.1222012E3,4.8776753E3,-2.0018036E3],"split_indices":[21,24,26,40,89,225,61,0,0,0,0,0,0,0,0],"split_type":[0,0,0,0,0,0,0,0,0,0,0,0,0,0,0],"sum_hessian":[9.42E2,7.65E2,1.77E2,5.79E2,1.86E2,1.54E2,2.3E1,2.36E2,3.43E2,1.68E2,1.8E1,1.24E2,3E1,2E1,3E0],"tree_param":{"num_deleted":"0","num_feature":"234","num_nodes":"15","size_leaf_vector":"1"}},{"base_weights":[7.167637E2,-7.9395576E3,1.6446314E4,-1.4441696E4,4.5018277E2,9.698421E3,4.9068566E4,-1.7882057E3,-6.175937E2,-2.859545E2,3.573055E2,3.2177304E2,2.9707944E3,1.959998E3,3.8289648E3],"categories":[],"categories_nodes":[],"categories_segments":[],"categories_sizes":[],"default_left":[0,0,0,0,0,0,0,0,0,0,0,0,0,0,0],"id":34,"left_children":[1,3,5,7,9,11,13,-1,-1,-1,-1,-1,-1,-1,-1],"loss_changes":[1.2812102E11,3.3119113E10,7.304803E10,1.4797791E10,1.1029065E10,4.4716483E10,1.2473188E10,0E0,0E0,0E0,0E0,0E0,0E0,0E0,0E0],"parents":[2147483647,0,0,1,1,2,2,3,3,4,4,5,5,6,6],"right_children":[2,4,6,8,10,12,14,-1,-1,-1,-1,-1,-1,-1,-1],"split_conditions":[1.652E3,1.01E3,1.11E3,8.16E2,1.997E3,2.696E3,1.6905E4,-1.7882057E3,-6.175937E2,-2.859545E2,3.573055E2,3.2177304E2,2.9707944E3,1.959998E3,3.8289648E3],"split_indices":[26,21,17,26,9,26,3,0,0,0,0,0,0,0,0],"split_type":[0,0,0,0,0,0,0,0,0,0,0,0,0,0,0],"sum_hessian":[9.39E2,6.06E2,3.33E2,3.41E2,2.65E2,2.77E2,5.6E1,2.9E1,3.12E2,1.38E2,1.27E2,2.61E2,1.6E1,4.3E1,1.3E1],"tree_param":{"num_deleted":"0","num_feature":"234","num_nodes":"15","size_leaf_vector":"1"}},{"base_weights":[2.2600622E1,-8.642542E3,1.5107208E4,-2.549005E4,-6.161809E3,9.073524E3,4.716074E4,-1.9866625E3,-1.0158742E3,-7.1516223E2,-1.3019164E2,2.5429094E2,2.3814802E3,2.6058254E3,-2.888167E3],"categories":[],"categories_nodes":[],"categories_segments":[],"categories_sizes":[],"default_left":[0,0,0,0,0,0,0,0,0,0,0,0,0,0,0],"id":35,"left_children":[1,3,5,7,9,11,13,-1,-1,-1,-1,-1,-1,-1,-1],"loss_changes":[1.2718095E11,2.5671737E10,6.8229382E10,5.012959E9,1.5604957E10,4.5882864E10,3.2129253E10,0E0,0E0,0E0,0E0,0E0,0E0,0E0,0E0],"parents":[2147483647,0,0,1,1,2,2,3,3,4,4,5,5,6,6],"right_children":[2,4,6,8,10,12,14,-1,-1,-1,-1,-1,-1,-1,-1],"split_conditions":[1.652E3,5E0,1.097E3,8.64E2,7.244E3,1E0,2.82E2,-1.9866625E3,-1.0158742E3,-7.1516223E2,-1.3019164E2,2.5429094E2,2.3814802E3,2.6058254E3,-2.888167E3],"split_indices":[26,6,17,26,3,225,44,0,0,0,0,0,0,0,0],"split_type":[0,0,0,0,0,0,0,0,0,0,0,0,0,0,0],"sum_hessian":[9.71E2,6.17E2,3.54E2,7.8E1,5.39E2,2.99E2,5.5E1,1.9E1,5.9E1,1.63E2,3.76E2,2.72E2,2.7E1,5.3E1,2E0],"tree_param":{"num_deleted":"0","num_feature":"234","num_nodes":"15","size_leaf_vector":"1"}},{"base_weights":[1.0597167E3,-1.1756422E3,7.070471E4,-6.039221E3,1.7888576E4,5.329596E4,8.3092705E3,-7.589409E2,9.219673E1,5.7683575E2,2.278609E3,3.1514998E3,-2.1170823E3],"categories":[],"categories_nodes":[],"categories_segments":[],"categories_sizes":[],"default_left":[0,0,0,0,0,0,0,0,0,0,0,0,0],"id":36,"left_children":[1,3,5,7,9,11,-1,-1,-1,-1,-1,-1,-1],"loss_changes":[1.4517831E11,8.392722E10,3.9346782E10,5.1975225E10,3.1829242E10,2.6873225E10,0E0,0E0,0E0,0E0,0E0,0E0,0E0],"parents":[2147483647,0,0,1,1,2,2,3,3,4,4,5,5],"right_children":[2,4,6,8,10,12,-1,-1,-1,-1,-1,-1,-1],"split_conditions":[2.62E3,1.1988E4,1.589E3,1.988E3,2.005E3,1.11E2,8.3092705E3,-7.589409E2,9.219673E1,5.7683575E2,2.278609E3,3.1514998E3,-2.1170823E3],"split_indices":[26,3,24,9,37,2,0,0,0,0,0,0,0],"split_type":[0,0,0,0,0,0,0,0,0,0,0,0,0],"sum_hessian":[9.31E2,9.03E2,2.8E1,7.2E2,1.83E2,2.5E1,3E0,3.33E2,3.87E2,1.5E2,3.3E1,2.3E1,2E0],"tree_param":{"num_deleted":"0","num_feature":"234","num_nodes":"13","size_leaf_vector":"1"}},{"base_weights":[-3.2618652E2,-8.567954E3,1.39494E4,-1.2102206E4,5.5522373E3,1.2211129E4,7.997672E3,-4.833767E2,-1.4199974E3,1.2448629E2,2.42495E3,-1.65824E2,9.4305853E2],"categories":[],"categories_nodes":[],"categories_segments":[],"categories_sizes":[],"default_left":[0,0,0,0,0,0,0,0,0,0,0,0,0],"id":37,"left_children":[1,3,5,7,9,11,-1,-1,-1,-1,-1,-1,-1],"loss_changes":[1.11539814E11,3.0059688E10,8.611357E10,1.8811347E10,1.5793768E10,3.558373E10,0E0,0E0,0E0,0E0,0E0,0E0,0E0],"parents":[2147483647,0,0,1,1,2,2,3,3,4,4,5,5],"right_children":[2,4,6,8,10,12,-1,-1,-1,-1,-1,-1,-1],"split_conditions":[3E0,1.1988E4,1.589E3,1E0,3.576E4,1E0,7.997672E3,-4.833767E2,-1.4199974E3,1.2448629E2,2.42495E3,-1.65824E2,9.4305853E2],"split_indices":[11,3,24,187,3,36,0,0,0,0,0,0,0],"split_type":[0,0,0,0,0,0,0,0,0,0,0,0,0],"sum_hessian":[9.46E2,6E2,3.46E2,4.8E2,1.2E2,3.43E2,3E0,4.19E2,6.1E1,1.13E2,7E0,1.03E2,2.4E2],"tree_param":{"num_deleted":"0","num_feature":"234","num_nodes":"13","size_leaf_vector":"1"}},{"base_weights":[-5.1131357E2,-8.272059E3,1.3590075E4,-4.324321E3,-2.294977E4,7.5461636E3,4.4677207E4,-5.0966086E2,3.813283E2,-1.0020246E3,-1.7679963E3,1.1704508E2,1.1869955E3,-4.2242657E2,2.774505E3],"categories":[],"categories_nodes":[],"categories_segments":[],"categories_sizes":[],"default_left":[0,0,0,0,0,0,0,0,0,0,0,0,0,0,0],"id":38,"left_children":[1,3,5,7,9,11,13,-1,-1,-1,-1,-1,-1,-1,-1],"loss_changes":[1.0265515E11,3.4956734E10,6.2229512E10,3.3603953E10,3.9127532E9,2.354638E10,3.148872E10,0E0,0E0,0E0,0E0,0E0,0E0,0E0,0E0],"parents":[2147483647,0,0,1,1,2,2,3,3,4,4,5,5,6,6],"right_children":[2,4,6,8,10,12,14,-1,-1,-1,-1,-1,-1,-1,-1],"split_conditions":[1.152E3,1E0,2.217E3,7.16E2,1.692E3,1.121E3,1E0,-5.0966086E2,3.813283E2,-1.0020246E3,-1.7679963E3,1.1704508E2,1.1869955E3,-4.2242657E2,2.774505E3],"split_indices":[21,56,26,24,26,17,99,0,0,0,0,0,0,0,0],"split_type":[0,0,0,0,0,0,0,0,0,0,0,0,0,0,0],"sum_hessian":[9.36E2,6.04E2,3.32E2,4.77E2,1.27E2,2.79E2,5.3E1,3.2E2,1.57E2,1.05E2,2.2E1,2.12E2,6.7E1,9E0,4.4E1],"tree_param":{"num_deleted":"0","num_feature":"234","num_nodes":"15","size_leaf_vector":"1"}},{"base_weights":[6.343181E2,-1.1720612E3,8.274365E4,-1.1362042E4,7.080438E3,5.4629613E4,8.725694E3,-1.0342778E3,-2.7825998E2,6.669254E1,1.0266698E3,1.5957408E3,3.9637546E3],"categories":[],"categories_nodes":[],"categories_segments":[],"categories_sizes":[],"default_left":[0,0,0,0,0,0,0,0,0,0,0,0,0],"id":39,"left_children":[1,3,5,7,9,11,-1,-1,-1,-1,-1,-1,-1],"loss_changes":[1.3091575E11,7.273664E10,3.9486964E10,2.0801044E10,3.692612E10,6.4270254E9,0E0,0E0,0E0,0E0,0E0,0E0,0E0],"parents":[2147483647,0,0,1,1,2,2,3,3,4,4,5,5],"right_children":[2,4,6,8,10,12,-1,-1,-1,-1,-1,-1,-1],"split_conditions":[2.696E3,1.99E3,9.1E1,2.92E2,7.05E2,1.991E3,8.725694E3,-1.0342778E3,-2.7825998E2,6.669254E1,1.0266698E3,1.5957408E3,3.9637546E3],"split_indices":[26,9,2,17,17,37,0,0,0,0,0,0,0],"split_type":[0,0,0,0,0,0,0,0,0,0,0,0,0],"sum_hessian":[8.81E2,8.63E2,1.8E1,3.86E2,4.77E2,1.5E1,3E0,1.47E2,2.39E2,3.35E2,1.42E2,9E0,6E0],"tree_param":{"num_deleted":"0","num_feature":"234","num_nodes":"13","size_leaf_vector":"1"}},{"base_weights":[-3.461743E2,-8.49795E3,9.436771E3,-4.68455E3,-2.0852463E4,4.1768314E2,2.1592793E4,-5.453464E2,2.1835884E2,-1.4544574E3,-7.6696326E2,-6.3822163E1,8.412592E2,4.8923752E2,1.5972953E3],"categories":[],"categories_nodes":[],"categories_segments":[],"categories_sizes":[],"default_left":[0,0,0,0,0,0,0,0,0,0,0,0,0,0,0],"id":40,"left_children":[1,3,5,7,9,11,13,-1,-1,-1,-1,-1,-1,-1,-1],"loss_changes":[7.456518E10,2.3929795E10,4.6586376E10,2.207003E10,5.003051E9,6.83159E9,2.1814673E10,0E0,0E0,0E0,0E0,0E0,0E0,0E0,0E0],"parents":[2147483647,0,0,1,1,2,2,3,3,4,4,5,5,6,6],"right_children":[2,4,6,8,10,12,14,-1,-1,-1,-1,-1,-1,-1,-1],"split_conditions":[1.056E3,1E0,1.652E3,6.84E2,6E0,2.007E3,1.1777E4,-5.453464E2,2.1835884E2,-1.4544574E3,-7.6696326E2,-6.3822163E1,8.412592E2,4.8923752E2,1.5972953E3],"split_indices":[21,56,26,24,7,8,3,0,0,0,0,0,0,0,0],"split_type":[0,0,0,0,0,0,0,0,0,0,0,0,0,0,0],"sum_hessian":[9.33E2,5.09E2,4.24E2,3.9E2,1.19E2,2.44E2,1.8E2,2.31E2,1.59E2,4.6E1,7.3E1,2.22E2,2.2E1,8.5E1,9.5E1],"tree_param":{"num_deleted":"0","num_feature":"234","num_nodes":"15","size_leaf_vector":"1"}},{"base_weights":[1.1294534E2,-3.483191E3,2.4740998E4,-1.2060896E4,1.4843472E3,2.1093174E4,1.2434263E5,-2.0358885E3,-5.201979E2,-1.886566E2,4.135314E2,7.109194E2,2.7721218E3,4.58218E2,7.984031E3],"categories":[],"categories_nodes":[],"categories_segments":[],"categories_sizes":[],"default_left":[0,0,0,0,0,0,0,0,0,0,0,0,0,0,0],"id":41,"left_children":[1,3,5,7,9,11,13,-1,-1,-1,-1,-1,-1,-1,-1],"loss_changes":[8.2718106E10,3.474512E10,4.0613396E10,1.3773705E10,1.8477111E10,2.6604388E10,1.4817292E10,0E0,0E0,0E0,0E0,0E0,0E0,0E0,0E0],"parents":[2147483647,0,0,1,1,2,2,3,3,4,4,5,5,6,6],"right_children":[2,4,6,8,10,12,14,-1,-1,-1,-1,-1,-1,-1,-1],"split_conditions":[3E0,1.974E3,1.589E3,4E0,1E0,2.008E3,3.06E2,-2.0358885E3,-5.201979E2,-1.886566E2,4.135314E2,7.109194E2,2.7721218E3,4.58218E2,7.984031E3],"split_indices":[39,9,24,7,27,8,0,0,0,0,0,0,0,0,0],"split_type":[0,0,0,0,0,0,0,0,0,0,0,0,0,0,0],"sum_hessian":[9.32E2,8.14E2,1.18E2,2.98E2,5.16E2,1.15E2,3E0,1.5E1,2.83E2,2.91E2,2.25E2,9.7E1,1.8E1,1E0,2E0],"tree_param":{"num_deleted":"0","num_feature":"234","num_nodes":"15","size_leaf_vector":"1"}},{"base_weights":[-8.731462E1,-4.1244785E3,2.487597E4,-1.0680177E4,3.3219175E3,1.0752552E4,4.54585E4,-1.4311727E3,-4.4109927E2,3.238613E1,1.2708573E3,-1.0433595E3,9.8795245E2,1.9423951E3,7.13429E3],"categories":[],"categories_nodes":[],"categories_segments":[],"categories_sizes":[],"default_left":[0,0,0,0,0,0,0,0,0,0,0,0,0,0,0],"id":42,"left_children":[1,3,5,7,9,11,13,-1,-1,-1,-1,-1,-1,-1,-1],"loss_changes":[9.483662E10,3.9576703E10,3.7592334E10,1.4117908E10,2.2436575E10,2.2910181E10,2.8521669E10,0E0,0E0,0E0,0E0,0E0,0E0,0E0,0E0],"parents":[2147483647,0,0,1,1,2,2,3,3,4,4,5,5,6,6],"right_children":[2,4,6,8,10,12,14,-1,-1,-1,-1,-1,-1,-1,-1],"split_conditions":[2.035E3,2.8E1,3E0,5E0,1.121E3,1.921E3,1E0,-1.4311727E3,-4.4109927E2,3.238613E1,1.2708573E3,-1.0433595E3,9.8795245E2,1.9423951E3,7.13429E3],"split_indices":[26,44,39,7,17,8,154,0,0,0,0,0,0,0,0],"split_type":[0,0,0,0,0,0,0,0,0,0,0,0,0,0,0],"sum_hessian":[9.39E2,8.09E2,1.3E2,4.3E2,3.79E2,7.8E1,5.2E1,3.9E1,3.91E2,3.39E2,4E1,1.7E1,6.1E1,5E1,2E0],"tree_param":{"num_deleted":"0","num_feature":"234","num_nodes":"15","size_leaf_vector":"1"}},{"base_weights":[-1.2249775E3,-1.0034284E4,6.696975E3,-1.6424879E4,-2.4040972E3,1.5288209E3,2.4771615E4,-1.5090826E3,-5.912354E2,-6.7567816E2,3.2348106E1,-1.5132933E2,6.280574E2,1.0260837E3,3.057775E3],"categories":[],"categories_nodes":[],"categories_segments":[],"categories_sizes":[],"default_left":[0,0,0,0,0,0,0,0,0,0,0,0,0,0,0],"id":43,"left_children":[1,3,5,7,9,11,13,-1,-1,-1,-1,-1,-1,-1,-1],"loss_changes":[6.559711E10,2.165935E10,4.620133E10,1.4957724E10,6.9234524E9,1.943712E10,1.575422E10,0E0,0E0,0E0,0E0,0E0,0E0,0E0,0E0],"parents":[2147483647,0,0,1,1,2,2,3,3,4,4,5,5,6,6],"right_children":[2,4,6,8,10,12,14,-1,-1,-1,-1,-1,-1,-1,-1],"split_conditions":[1.991E3,6E0,1.924E3,1.95E3,1E0,1.358E3,4E1,-1.5090826E3,-5.912354E2,-6.7567816E2,3.2348106E1,-1.5132933E2,6.280574E2,1.0260837E3,3.057775E3],"split_indices":[9,7,26,8,55,21,47,0,0,0,0,0,0,0,0],"split_type":[0,0,0,0,0,0,0,0,0,0,0,0,0,0,0],"sum_hessian":[9.38E2,4.44E2,4.94E2,2.41E2,2.03E2,3.85E2,1.09E2,5.9E1,1.82E2,4.3E1,1.6E2,2.73E2,1.12E2,9.9E1,1E1],"tree_param":{"num_deleted":"0","num_feature":"234","num_nodes":"15","size_leaf_vector":"1"}},{"base_weights":[7.341711E2,2.525038E1,1.2918555E5,-8.851799E3,8.225183E3,1.9204781E3,7.113858E3,-1.0126261E3,-2.4478491E2,1.0961852E2,1.070867E3],"categories":[],"categories_nodes":[],"categories_segments":[],"categories_sizes":[],"default_left":[0,0,0,0,0,0,0,0,0,0,0],"id":44,"left_children":[1,3,5,7,9,-1,-1,-1,-1,-1,-1],"loss_changes":[8.295408E10,6.609443E10,4.7720858E8,1.9565496E10,3.751754E10,0E0,0E0,0E0,0E0,0E0,0E0],"parents":[2147483647,0,0,1,1,2,2,3,3,4,4],"right_children":[2,4,6,8,10,-1,-1,-1,-1,-1,-1],"split_conditions":[1.696E3,1E0,5E1,1.947E3,1.924E3,1.9204781E3,7.113858E3,-1.0126261E3,-2.4478491E2,1.0961852E2,1.070867E3],"split_indices":[17,36,2,8,26,0,0,0,0,0,0],"split_type":[0,0,0,0,0,0,0,0,0,0,0],"sum_hessian":[9.1E2,9.06E2,4E0,4.35E2,4.71E2,1E0,3E0,1.11E2,3.24E2,3.24E2,1.47E2],"tree_param":{"num_deleted":"0","num_feature":"234","num_nodes":"11","size_leaf_vector":"1"}},{"base_weights":[-7.648764E1,-3.1710955E3,2.4003238E4,-8.751473E3,4.3747334E3,2.0895242E4,6.1355005E3,-1.3818801E3,-3.5131088E2,-2.686708E1,8.2810266E2,-4.1498413E2,1.4934823E3],"categories":[],"categories_nodes":[],"categories_segments":[],"categories_sizes":[],"default_left":[0,0,0,0,0,0,0,0,0,0,0,0,0],"id":45,"left_children":[1,3,5,7,9,11,-1,-1,-1,-1,-1,-1,-1],"loss_changes":[6.870656E10,3.4440987E10,2.9647868E10,1.5120011E10,2.0841927E10,2.7234636E10,0E0,0E0,0E0,0E0,0E0,0E0,0E0],"parents":[2147483647,0,0,1,1,2,2,3,3,4,4,5,5],"right_children":[2,4,6,8,10,12,-1,-1,-1,-1,-1,-1,-1],"split_conditions":[2.094E3,4E0,5.55E2,1.8E2,1.647E3,1.988E3,6.1355005E3,-1.3818801E3,-3.5131088E2,-2.686708E1,8.2810266E2,-4.1498413E2,1.4934823E3],"split_indices":[26,16,48,40,26,9,0,0,0,0,0,0,0],"split_type":[0,0,0,0,0,0,0,0,0,0,0,0,0],"sum_hessian":[9.2E2,8.16E2,1.04E2,4.69E2,3.47E2,1.02E2,2E0,3.8E1,4.31E2,2.48E2,9.9E1,2.4E1,7.8E1],"tree_param":{"num_deleted":"0","num_feature":"234","num_nodes":"13","size_leaf_vector":"1"}},{"base_weights":[-8.546981E2,-9.116359E3,6.4415205E3,-1.6971752E4,-3.9620435E3,3.129944E3,3.579474E4,-1.1464227E3,-4.322172E2,-9.2246564E2,-8.629287E1,6.0250366E1,1.5147775E3,2.0753267E3,-3.4714727E3],"categories":[],"categories_nodes":[],"categories_segments":[],"categories_sizes":[],"default_left":[0,0,0,0,0,0,0,0,0,0,0,0,0,0,0],"id":46,"left_children":[1,3,5,7,9,11,13,-1,-1,-1,-1,-1,-1,-1,-1],"loss_changes":[5.720311E10,1.7950433E10,4.88795E10,8.532087E9,8.715142E9,2.3704095E10,3.353373E10,0E0,0E0,0E0,0E0,0E0,0E0,0E0,0E0],"parents":[2147483647,0,0,1,1,2,2,3,3,4,4,5,5,6,6],"right_children":[2,4,6,8,10,12,14,-1,-1,-1,-1,-1,-1,-1,-1],"split_conditions":[1.993E3,2.92E2,2.291E3,6E0,1E0,2.008E3,1E0,-1.1464227E3,-4.322172E2,-9.2246564E2,-8.629287E1,6.0250366E1,1.5147775E3,2.0753267E3,-3.4714727E3],"split_indices":[9,17,26,7,55,37,79,0,0,0,0,0,0,0,0],"split_type":[0,0,0,0,0,0,0,0,0,0,0,0,0,0,0],"sum_hessian":[9.47E2,4.44E2,5.03E2,1.75E2,2.69E2,4.53E2,5E1,1.01E2,7.4E1,3.5E1,2.34E2,4.24E2,2.9E1,4.8E1,2E0],"tree_param":{"num_deleted":"0","num_feature":"234","num_nodes":"15","size_leaf_vector":"1"}},{"base_weights":[-8.835269E2,-8.841212E3,5.0938423E3,-1.0436278E4,1.6649473E4,1.7021512E3,1.6062951E4,-5.514294E2,1.797785E3,1.2279728E3,-3.03449E2,6.149343E0,1.3514728E3,8.9728925E2,-3.355757E3],"categories":[],"categories_nodes":[],"categories_segments":[],"categories_sizes":[],"default_left":[0,0,0,0,0,0,0,0,0,0,0,0,0,0,0],"id":47,"left_children":[1,3,5,7,9,11,13,-1,-1,-1,-1,-1,-1,-1,-1],"loss_changes":[4.4471697E10,1.6478149E10,1.9839504E10,1.0783375E10,4.461913E9,1.6355031E10,2.0937355E10,0E0,0E0,0E0,0E0,0E0,0E0,0E0,0E0],"parents":[2147483647,0,0,1,1,2,2,3,3,4,4,5,5,6,6],"right_children":[2,4,6,8,10,12,14,-1,-1,-1,-1,-1,-1,-1,-1],"split_conditions":[4.51E2,1E0,9.22E2,2.178E4,1E0,2.008E3,2.65E2,-5.514294E2,1.797785E3,1.2279728E3,-3.03449E2,6.149343E0,1.3514728E3,8.9728925E2,-3.355757E3],"split_indices":[40,78,17,3,213,37,44,0,0,0,0,0,0,0,0],"split_type":[0,0,0,0,0,0,0,0,0,0,0,0,0,0,0],"sum_hessian":[9.33E2,4E2,5.33E2,3.77E2,2.3E1,4.08E2,1.25E2,3.73E2,4E0,1.7E1,6E0,3.85E2,2.3E1,1.23E2,2E0],"tree_param":{"num_deleted":"0","num_feature":"234","num_nodes":"15","size_leaf_vector":"1"}},{"base_weights":[-2.6408438E2,-7.164213E3,7.2206074E3,-2.5188387E4,-5.5826826E3,2.3930159E3,2.0287195E4,-1.3350665E3,8.0758655E2,-3.252965E2,1.2941039E3,-1.3339735E2,6.111226E2,1.1520112E3,-1.3919655E3],"categories":[],"categories_nodes":[],"categories_segments":[],"categories_sizes":[],"default_left":[0,0,0,0,0,0,0,0,0,0,0,0,0,0,0],"id":48,"left_children":[1,3,5,7,9,11,13,-1,-1,-1,-1,-1,-1,-1,-1],"loss_changes":[4.8340115E10,1.3741693E10,2.8274438E10,2.8705362E9,1.3211729E10,1.639918E10,1.6673157E10,0E0,0E0,0E0,0E0,0E0,0E0,0E0,0E0],"parents":[2147483647,0,0,1,1,2,2,3,3,4,4,5,5,6,6],"right_children":[2,4,6,8,10,12,14,-1,-1,-1,-1,-1,-1,-1,-1],"split_conditions":[3E1,5E0,1.494E3,1.2E1,2.329E3,5E0,1.2E2,-1.3350665E3,8.0758655E2,-3.252965E2,1.2941039E3,-1.3339735E2,6.111226E2,1.1520112E3,-1.3919655E3],"split_indices":[44,7,23,50,26,16,2,0,0,0,0,0,0,0,0],"split_type":[0,0,0,0,0,0,0,0,0,0,0,0,0,0,0],"sum_hessian":[9.34E2,4.86E2,4.48E2,3.8E1,4.48E2,3.28E2,1.2E2,3.7E1,1E0,4.36E2,1.2E1,2.17E2,1.11E2,1.14E2,6E0],"tree_param":{"num_deleted":"0","num_feature":"234","num_nodes":"15","size_leaf_vector":"1"}},{"base_weights":[-3.6484234E1,-4.5691455E3,1.30184795E4,-1.0435983E4,2.2957625E3,5.443018E3,2.7202764E4,-8.498162E2,-2.8016385E2,-1.4442278E1,1.0529072E3,6.8594826E1,8.3756683E2,1.2079818E3,6.994562E3],"categories":[],"categories_nodes":[],"categories_segments":[],"categories_sizes":[],"default_left":[0,0,0,0,0,0,0,0,0,0,0,0,0,0,0],"id":49,"left_children":[1,3,5,7,9,11,13,-1,-1,-1,-1,-1,-1,-1,-1],"loss_changes":[5.556444E10,2.8095844E10,2.5855439E10,1.1825541E10,1.5620959E10,7.296987E9,2.5426026E10,0E0,0E0,0E0,0E0,0E0,0E0,0E0,0E0],"parents":[2147483647,0,0,1,1,2,2,3,3,4,4,5,5,6,6],"right_children":[2,4,6,8,10,12,14,-1,-1,-1,-1,-1,-1,-1,-1],"split_conditions":[1.17E4,1.974E3,2E3,6E0,2.007E3,9.43E2,1E0,-8.498162E2,-2.8016385E2,-1.4442278E1,1.0529072E3,6.8594826E1,8.3756683E2,1.2079818E3,6.994562E3],"split_indices":[3,8,26,7,8,17,163,0,0,0,0,0,0,0,0],"split_type":[0,0,0,0,0,0,0,0,0,0,0,0,0,0,0],"sum_hessian":[9.37E2,6.96E2,2.41E2,3.75E2,3.21E2,1.58E2,8.3E1,1.58E2,2.17E2,2.83E2,3.8E1,1.17E2,4.1E1,8.2E1,1E0],"tree_param":{"num_deleted":"0","num_feature":"234","num_nodes":"15","size_leaf_vector":"1"}},{"base_weights":[2.2882036E2,-1.9921158E3,2.4093959E4,5.1992145E2,-1.5399776E4,1.8418842E4,6.294885E3,-5.200461E1,9.4621844E2,-8.2718616E2,1.16328125E2,1.0770931E3,-3.2377656E3],"categories":[],"categories_nodes":[],"categories_segments":[],"categories_sizes":[],"default_left":[0,0,0,0,0,0,0,0,0,0,0,0,0],"id":50,"left_children":[1,3,5,7,9,11,-1,-1,-1,-1,-1,-1,-1],"loss_changes":[4.9181733E10,2.8602788E10,4.3323216E10,2.0576895E10,2.7557437E9,2.1136304E10,0E0,0E0,0E0,0E0,0E0,0E0,0E0],"parents":[2147483647,0,0,1,1,2,2,3,3,4,4,5,5],"right_children":[2,4,6,8,10,12,-1,-1,-1,-1,-1,-1,-1],"split_conditions":[1.11E3,1E0,1.589E3,1.02E3,1.2E3,1E0,6.294885E3,-5.200461E1,9.4621844E2,-8.2718616E2,1.16328125E2,1.0770931E3,-3.2377656E3],"split_indices":[17,56,24,24,21,61,0,0,0,0,0,0,0],"split_type":[0,0,0,0,0,0,0,0,0,0,0,0,0],"sum_hessian":[9.26E2,8.48E2,7.8E1,7.15E2,1.33E2,7.5E1,3E0,6.6E2,5.5E1,1.25E2,8E0,7.3E1,2E0],"tree_param":{"num_deleted":"0","num_feature":"234","num_nodes":"13","size_leaf_vector":"1"}},{"base_weights":[3.1975473E2,-2.5922969E3,2.0380586E4,-6.010419E3,6.823423E3,1.5529677E4,8.513938E4,-9.9535626E2,-1.8322337E2,1.8334123E2,1.5459711E3,9.265952E2,-1.0277333E3,1.0050615E3,7.257611E3],"categories":[],"categories_nodes":[],"categories_segments":[],"categories_sizes":[],"default_left":[0,0,0,0,0,0,0,0,0,0,0,0,0,0,0],"id":51,"left_children":[1,3,5,7,9,11,13,-1,-1,-1,-1,-1,-1,-1,-1],"loss_changes":[5.438174E10,2.6206669E10,3.574623E10,1.938985E10,1.6391945E10,1.2405924E10,2.8307251E10,0E0,0E0,0E0,0E0,0E0,0E0,0E0,0E0],"parents":[2147483647,0,0,1,1,2,2,3,3,4,4,5,5,6,6],"right_children":[2,4,6,8,10,12,14,-1,-1,-1,-1,-1,-1,-1,-1],"split_conditions":[1.386E4,5E0,3E0,6E3,2.007E3,1E0,1.394E3,-9.9535626E2,-1.8322337E2,1.8334123E2,1.5459711E3,9.265952E2,-1.0277333E3,1.0050615E3,7.257611E3],"split_indices":[3,16,29,3,37,228,21,0,0,0,0,0,0,0,0],"split_type":[0,0,0,0,0,0,0,0,0,0,0,0,0,0,0],"sum_hessian":[9.29E2,8.12E2,1.17E2,5.96E2,2.16E2,1.1E2,7E0,8.5E1,5.11E2,1.92E2,2.4E1,1.02E2,8E0,4E0,3E0],"tree_param":{"num_deleted":"0","num_feature":"234","num_nodes":"15","size_leaf_vector":"1"}},{"base_weights":[5.980388E2,-6.0164905E2,4.2887105E4,-5.807434E3,5.3596504E3,5.462664E4,-3.2662437E3,-1.0154824E3,-2.0932918E2,-1.2919883E1,7.0278937E2,9.7982776E2,4.401184E3],"categories":[],"categories_nodes":[],"categories_segments":[],"categories_sizes":[],"default_left":[0,0,0,0,0,0,0,0,0,0,0,0,0],"id":52,"left_children":[1,3,5,7,9,11,-1,-1,-1,-1,-1,-1,-1],"loss_changes":[4.7816925E10,2.8488612E10,3.6597793E10,1.1432873E10,2.0913705E10,2.6352665E10,0E0,0E0,0E0,0E0,0E0,0E0,0E0],"parents":[2147483647,0,0,1,1,2,2,3,3,4,4,5,5],"right_children":[2,4,6,8,10,12,-1,-1,-1,-1,-1,-1,-1],"split_conditions":[2.696E3,1.026E3,1E0,1.8E2,1.652E3,1.991E3,-3.2662437E3,-1.0154824E3,-2.0932918E2,-1.2919883E1,7.0278937E2,9.7982776E2,4.401184E3],"split_indices":[26,21,79,40,26,8,0,0,0,0,0,0,0],"split_type":[0,0,0,0,0,0,0,0,0,0,0,0,0],"sum_hessian":[9.41E2,9.16E2,2.5E1,4.89E2,4.27E2,2.3E1,2E0,4.8E1,4.41E2,2.6E2,1.67E2,1.2E1,1.1E1],"tree_param":{"num_deleted":"0","num_feature":"234","num_nodes":"13","size_leaf_vector":"1"}},{"base_weights":[-5.4244037E0,-1.8008898E3,2.605884E4,-2.8726482E3,2.6389043E4,3.0223662E4,-3.1573687E3,-4.3420163E2,7.840288E1,9.0384875E2,2.4532812E3,1.0461107E3,4.7501235E3],"categories":[],"categories_nodes":[],"categories_segments":[],"categories_sizes":[],"default_left":[0,0,0,0,0,0,0,0,0,0,0,0,0],"id":53,"left_children":[1,3,5,7,9,11,-1,-1,-1,-1,-1,-1,-1],"loss_changes":[4.3568587E10,2.639115E10,2.4200237E10,2.16912E10,5.144699E9,3.2959463E10,0E0,0E0,0E0,0E0,0E0,0E0,0E0],"parents":[2147483647,0,0,1,1,2,2,3,3,4,4,5,5],"right_children":[2,4,6,8,10,12,-1,-1,-1,-1,-1,-1,-1],"split_conditions":[2.392E3,2.008E3,1E0,2.92E2,9.43E2,1E1,-3.1573687E3,-4.3420163E2,7.840288E1,9.0384875E2,2.4532812E3,1.0461107E3,4.7501235E3],"split_indices":[26,37,79,17,17,6,0,0,0,0,0,0,0],"split_type":[0,0,0,0,0,0,0,0,0,0,0,0,0],"sum_hessian":[9.29E2,8.7E2,5.9E1,8.39E2,3.1E1,5.7E1,2E0,3.63E2,4.76E2,2.4E1,7E0,5.1E1,6E0],"tree_param":{"num_deleted":"0","num_feature":"234","num_nodes":"13","size_leaf_vector":"1"}},{"base_weights":[3.491086E2,-1.8892515E3,2.2286184E4,-3.4768835E3,1.8520668E4,1.8330904E4,6.2802637E3,-1.0429736E3,-9.370993E1,4.3508798E2,2.8944702E3,3.4379346E2,1.4294152E3],"categories":[],"categories_nodes":[],"categories_segments":[],"categories_sizes":[],"default_left":[0,0,0,0,0,0,0,0,0,0,0,0,0],"id":54,"left_children":[1,3,5,7,9,11,-1,-1,-1,-1,-1,-1,-1],"loss_changes":[4.560976E10,2.7380498E10,3.284194E10,2.1774356E10,2.3076297E10,9.673333E9,0E0,0E0,0E0,0E0,0E0,0E0,0E0],"parents":[2147483647,0,0,1,1,2,2,3,3,4,4,5,5],"right_children":[2,4,6,8,10,12,-1,-1,-1,-1,-1,-1,-1],"split_conditions":[1.11E3,1E0,1.796E3,1.921E3,1.98E3,1.652E3,6.2802637E3,-1.0429736E3,-9.370993E1,4.3508798E2,2.8944702E3,3.4379346E2,1.4294152E3],"split_indices":[17,225,24,37,26,23,0,0,0,0,0,0,0],"split_type":[0,0,0,0,0,0,0,0,0,0,0,0,0],"sum_hessian":[9.27E2,8.42E2,8.5E1,7.82E2,6E1,8.3E1,2E0,6.5E1,7.17E2,4.9E1,1.1E1,4E1,4.3E1],"tree_param":{"num_deleted":"0","num_feature":"234","num_nodes":"13","size_leaf_vector":"1"}},{"base_weights":[-4.13512E2,-6.7918267E3,5.063514E3,-1.062814E4,1.0785378E2,3.4470637E3,3.452441E4,-1.4661693E3,-4.6848605E2,-2.1714253E2,2.6494223E2,8.3446465E1,1.366024E3,1.2640897E3,4.8478613E3],"categories":[],"categories_nodes":[],"categories_segments":[],"categories_sizes":[],"default_left":[0,0,0,0,0,0,0,0,0,0,0,0,0,0,0],"id":55,"left_children":[1,3,5,7,9,11,13,-1,-1,-1,-1,-1,-1,-1,-1],"loss_changes":[3.2593062E10,1.1409428E10,2.3787278E10,6.2420767E9,3.6040645E9,2.0203125E10,1.2551856E10,0E0,0E0,0E0,0E0,0E0,0E0,0E0,0E0],"parents":[2147483647,0,0,1,1,2,2,3,3,4,4,5,5,6,6],"right_children":[2,4,6,8,10,12,14,-1,-1,-1,-1,-1,-1,-1,-1],"split_conditions":[1E0,4E0,2.008E3,4E0,5.05E2,1.9296E4,4E1,-1.4661693E3,-4.6848605E2,-2.1714253E2,2.6494223E2,8.3446465E1,1.366024E3,1.2640897E3,4.8478613E3],"split_indices":[36,16,37,6,40,3,47,0,0,0,0,0,0,0,0],"split_type":[0,0,0,0,0,0,0,0,0,0,0,0,0,0,0],"sum_hessian":[9.31E2,4.3E2,5.01E2,2.76E2,1.54E2,4.76E2,2.5E1,1.6E1,2.6E2,8.3E1,7.1E1,4.44E2,3.2E1,2.3E1,2E0],"tree_param":{"num_deleted":"0","num_feature":"234","num_nodes":"15","size_leaf_vector":"1"}},{"base_weights":[7.569686E2,-3.3319846E2,4.556807E4,-2.0151257E3,1.886377E4,5.2974844E4,-2.7493533E3,-5.4705316E2,3.1970707E1,3.6061224E2,1.5653966E3,1.6642721E3,6.4166724E3],"categories":[],"categories_nodes":[],"categories_segments":[],"categories_sizes":[],"default_left":[0,0,0,0,0,0,0,0,0,0,0,0,0],"id":56,"left_children":[1,3,5,7,9,11,-1,-1,-1,-1,-1,-1,-1],"loss_changes":[4.5251756E10,2.9258568E10,1.9298284E10,1.9744313E10,1.0358725E10,2.6887455E10,0E0,0E0,0E0,0E0,0E0,0E0,0E0],"parents":[2147483647,0,0,1,1,2,2,3,3,4,4,5,5],"right_children":[2,4,6,8,10,12,-1,-1,-1,-1,-1,-1,-1],"split_conditions":[2.696E3,1E0,1E0,7.244E3,1.1E2,1.05E2,-2.7493533E3,-5.4705316E2,3.1970707E1,3.6061224E2,1.5653966E3,1.6642721E3,6.4166724E3],"split_indices":[26,225,79,3,43,2,0,0,0,0,0,0,0],"split_type":[0,0,0,0,0,0,0,0,0,0,0,0,0],"sum_hessian":[9.25E2,9.04E2,2.1E1,8.32E2,7.2E1,2E1,1E0,1.9E2,6.42E2,3.8E1,3.4E1,1.7E1,3E0],"tree_param":{"num_deleted":"0","num_feature":"234","num_nodes":"13","size_leaf_vector":"1"}},{"base_weights":[7.7864935E2,-6.616745E2,3.1849574E4,-1.6809292E3,2.6560361E4,2.2175658E4,9.706665E4,-1.1052539E3,-3.3822723E1,1.8265651E3,2.1019495E2,3.9489517E2,2.563141E3,5.6161655E3,9.01E2],"categories":[],"categories_nodes":[],"categories_segments":[],"categories_sizes":[],"default_left":[0,0,0,0,0,0,0,0,0,0,0,0,0,0,0],"id":57,"left_children":[1,3,5,7,9,11,13,-1,-1,-1,-1,-1,-1,-1,-1],"loss_changes":[4.1416856E10,2.4600019E10,2.371457E10,1.7505319E10,6.979707E9,1.4961207E10,4.0058757E9,0E0,0E0,0E0,0E0,0E0,0E0,0E0,0E0],"parents":[2147483647,0,0,1,1,2,2,3,3,4,4,5,5,6,6],"right_children":[2,4,6,8,10,12,14,-1,-1,-1,-1,-1,-1,-1,-1],"split_conditions":[9E0,1.9296E4,1E0,5E0,3E0,2.008E3,8E1,-1.1052539E3,-3.3822723E1,1.8265651E3,2.1019495E2,3.9489517E2,2.563141E3,5.6161655E3,9.01E2],"split_indices":[6,3,198,7,4,37,1,0,0,0,0,0,0,0,0],"split_type":[0,0,0,0,0,0,0,0,0,0,0,0,0,0,0],"sum_hessian":[9.24E2,8.84E2,4E1,8.53E2,3.1E1,3.6E1,4E0,3.9E1,8.14E2,2.1E1,1E1,2.5E1,1.1E1,3E0,1E0],"tree_param":{"num_deleted":"0","num_feature":"234","num_nodes":"15","size_leaf_vector":"1"}},{"base_weights":[3.1718134E2,-5.2565E3,6.708636E3,-9.346162E3,4.667498E2,5.968382E3,8.3868555E4,-8.1094824E2,-2.1906924E2,-5.726477E1,8.683647E2,1.8908554E2,1.0986346E3,-8.164844E1,5.6456694E3],"categories":[],"categories_nodes":[],"categories_segments":[],"categories_sizes":[],"default_left":[0,0,0,0,0,0,0,0,0,0,0,0,0,0,0],"id":58,"left_children":[1,3,5,7,9,11,13,-1,-1,-1,-1,-1,-1,-1,-1],"loss_changes":[3.2809282E10,1.1520193E10,2.4003043E10,9.721932E9,5.632245E9,1.4825273E10,1.0117892E10,0E0,0E0,0E0,0E0,0E0,0E0,0E0,0E0],"parents":[2147483647,0,0,1,1,2,2,3,3,4,4,5,5,6,6],"right_children":[2,4,6,8,10,12,14,-1,-1,-1,-1,-1,-1,-1,-1],"split_conditions":[9.75E3,1.985E3,1.796E3,6E0,2.008E3,2E0,3.06E2,-8.1094824E2,-2.1906924E2,-5.726477E1,8.683647E2,1.8908554E2,1.0986346E3,-8.164844E1,5.6456694E3],"split_indices":[3,37,24,7,9,36,0,0,0,0,0,0,0,0,0],"split_type":[0,0,0,0,0,0,0,0,0,0,0,0,0,0,0],"sum_hessian":[9.19E2,4.91E2,4.28E2,2.86E2,2.05E2,4.25E2,3E0,1.19E2,1.67E2,1.88E2,1.7E1,3.75E2,5E1,1E0,2E0],"tree_param":{"num_deleted":"0","num_feature":"234","num_nodes":"15","size_leaf_vector":"1"}},{"base_weights":[2.228088E2,-1.5766118E3,1.9563795E4,-2.6685308E3,1.8258557E4,1.4563663E4,6.96275E4,-9.376251E2,-7.970911E1,6.933676E2,3.7556472E3,8.2396796E2,-1.1540424E3,4.7245596E3,-1.9888652E3],"categories":[],"categories_nodes":[],"categories_segments":[],"categories_sizes":[],"default_left":[0,0,0,0,0,0,0,0,0,0,0,0,0,0,0],"id":59,"left_children":[1,3,5,7,9,11,13,-1,-1,-1,-1,-1,-1,-1,-1],"loss_changes":[3.2710457E10,1.8674946E10,1.9011977E10,1.4070415E10,1.0193044E10,5.716901E9,2.280005E10,0E0,0E0,0E0,0E0,0E0,0E0,0E0,0E0],"parents":[2147483647,0,0,1,1,2,2,3,3,4,4,5,5,6,6],"right_children":[2,4,6,8,10,12,14,-1,-1,-1,-1,-1,-1,-1,-1],"split_conditions":[1.148E3,2.007E3,2.121E3,5E0,2.196E3,1E0,1.68E2,-9.376251E2,-7.970911E1,6.933676E2,3.7556472E3,8.2396796E2,-1.1540424E3,4.7245596E3,-1.9888652E3],"split_indices":[17,8,21,7,26,91,2,0,0,0,0,0,0,0,0],"split_type":[0,0,0,0,0,0,0,0,0,0,0,0,0,0,0],"sum_hessian":[9.38E2,8.59E2,7.9E1,8.15E2,4.4E1,7.3E1,6E0,5E1,7.65E2,4.2E1,2E0,7E1,3E0,5E0,1E0],"tree_param":{"num_deleted":"0","num_feature":"234","num_nodes":"15","size_leaf_vector":"1"}},{"base_weights":[8.012582E1,-4.879741E3,5.3087925E3,-1.5150651E4,-2.6336191E3,2.0209806E3,1.7788275E4,-1.0243224E3,-4.184465E2,-3.365747E2,1.4467719E2,1.1984779E3,2.738068E1,1.00945404E3,-3.168318E3],"categories":[],"categories_nodes":[],"categories_segments":[],"categories_sizes":[],"default_left":[0,0,0,0,0,0,0,0,0,0,0,0,0,0,0],"id":60,"left_children":[1,3,5,7,9,11,13,-1,-1,-1,-1,-1,-1,-1,-1],"loss_changes":[2.455899E10,1.1171983E10,1.8878968E10,2.976723E9,9.079327E9,1.1822695E10,1.998361E10,0E0,0E0,0E0,0E0,0E0,0E0,0E0,0E0],"parents":[2147483647,0,0,1,1,2,2,3,3,4,4,5,5,6,6],"right_children":[2,4,6,8,10,12,14,-1,-1,-1,-1,-1,-1,-1,-1],"split_conditions":[1.026E3,6E3,2.035E3,3.84E2,1E0,1E0,1.81E3,-1.0243224E3,-4.184465E2,-3.365747E2,1.4467719E2,1.1984779E3,2.738068E1,1.00945404E3,-3.168318E3],"split_indices":[21,3,26,40,30,64,17,0,0,0,0,0,0,0,0],"split_type":[0,0,0,0,0,0,0,0,0,0,0,0,0,0,0],"sum_hessian":[9.45E2,4.85E2,4.6E2,8.6E1,3.99E2,3.65E2,9.5E1,4.7E1,3.9E1,2.29E2,1.7E2,2.2E1,3.43E2,9.3E1,2E0],"tree_param":{"num_deleted":"0","num_feature":"234","num_nodes":"15","size_leaf_vector":"1"}},{"base_weights":[1.19398994E2,-1.3087595E3,2.2341455E4,-1.5958768E4,5.0556555E0,-1.3215402E1,4.2461098E4,-1.2522538E3,-5.9038306E2,-2.151499E2,2.2537227E2,2.3935193E2,-2.0805505E3,1.3776506E3,4.3754336E3],"categories":[],"categories_nodes":[],"categories_segments":[],"categories_sizes":[],"default_left":[0,0,0,0,0,0,0,0,0,0,0,0,0,0,0],"id":61,"left_children":[1,3,5,7,9,11,13,-1,-1,-1,-1,-1,-1,-1,-1],"loss_changes":[2.995687E10,1.7072526E10,2.5637337E10,2.4577065E9,1.5827574E10,5.7902326E9,1.773607E10,0E0,0E0,0E0,0E0,0E0,0E0,0E0,0E0],"parents":[2147483647,0,0,1,1,2,2,3,3,4,4,5,5,6,6],"right_children":[2,4,6,8,10,12,14,-1,-1,-1,-1,-1,-1,-1,-1],"split_conditions":[2.392E3,1.921E3,3E0,6E3,3E1,1.37E2,1E1,-1.2522538E3,-5.9038306E2,-2.151499E2,2.2537227E2,2.3935193E2,-2.0805505E3,1.3776506E3,4.3754336E3],"split_indices":[26,37,39,3,44,2,6,0,0,0,0,0,0,0,0],"split_type":[0,0,0,0,0,0,0,0,0,0,0,0,0,0,0],"sum_hessian":[9.42E2,8.86E2,5.6E1,7.2E1,8.14E2,2.7E1,2.9E1,2.1E1,5.1E1,4.16E2,3.98E2,2.5E1,2E0,2.3E1,6E0],"tree_param":{"num_deleted":"0","num_feature":"234","num_nodes":"15","size_leaf_vector":"1"}},{"base_weights":[-1.10438705E2,-1.1165651E3,3.6557227E4,-2.0799187E3,2.8254396E4,4.281963E4,-2.8435117E3,-2.9690372E2,1.784012E2,1.1342322E3,3.448202E3,6.789922E2,3.325819E3],"categories":[],"categories_nodes":[],"categories_segments":[],"categories_sizes":[],"default_left":[0,0,0,0,0,0,0,0,0,0,0,0,0],"id":62,"left_children":[1,3,5,7,9,11,-1,-1,-1,-1,-1,-1,-1],"loss_changes":[3.4535125E10,2.583517E10,1.7062177E10,1.9262323E10,5.011114E9,1.5726031E10,0E0,0E0,0E0,0E0,0E0,0E0,0E0],"parents":[2147483647,0,0,1,1,2,2,3,3,4,4,5,5],"right_children":[2,4,6,8,10,12,-1,-1,-1,-1,-1,-1,-1],"split_conditions":[2.696E3,4E0,1E0,1E0,1.4859E4,1.991E3,-2.8435117E3,-2.9690372E2,1.784012E2,1.1342322E3,3.448202E3,6.789922E2,3.325819E3],"split_indices":[26,11,79,27,3,37,0,0,0,0,0,0,0],"split_type":[0,0,0,0,0,0,0,0,0,0,0,0,0],"sum_hessian":[9.34E2,9.1E2,2.4E1,8.82E2,2.8E1,2.3E1,1E0,5.24E2,3.58E2,2.6E1,2E0,1.1E1,1.2E1],"tree_param":{"num_deleted":"0","num_feature":"234","num_nodes":"13","size_leaf_vector":"1"}},{"base_weights":[5.320972E2,-1.3808126E3,1.6591207E4,-1.9557709E4,-3.043113E2,1.3721682E4,5.1442793E3,-1.0758392E3,7.8473334E2,7.32683E1,-4.8700577E2,7.966233E2,-3.0061726E3],"categories":[],"categories_nodes":[],"categories_segments":[],"categories_sizes":[],"default_left":[0,0,0,0,0,0,0,0,0,0,0,0,0],"id":63,"left_children":[1,3,5,7,9,11,-1,-1,-1,-1,-1,-1,-1],"loss_changes":[2.8284967E10,1.609806E10,2.2855373E10,3.5145564E9,1.3005572E10,1.6630454E10,0E0,0E0,0E0,0E0,0E0,0E0,0E0],"parents":[2147483647,0,0,1,1,2,2,3,3,4,4,5,5],"right_children":[2,4,6,8,10,12,-1,-1,-1,-1,-1,-1,-1],"split_conditions":[1.595E3,5E0,1.589E3,1.994E3,1E0,3.493E3,5.1442793E3,-1.0758392E3,7.8473334E2,7.32683E1,-4.8700577E2,7.966233E2,-3.0061726E3],"split_indices":[21,7,24,37,56,26,0,0,0,0,0,0,0],"split_type":[0,0,0,0,0,0,0,0,0,0,0,0,0],"sum_hessian":[9.19E2,8.22E2,9.7E1,4.5E1,7.77E2,9.5E1,2E0,4.3E1,2E0,6.55E2,1.22E2,9.3E1,2E0],"tree_param":{"num_deleted":"0","num_feature":"234","num_nodes":"13","size_leaf_vector":"1"}},{"base_weights":[-1.9462737E0,-3.1934158E2,7.522123E4,-1.2808049E3,2.4073307E4,4.8153986E2,4.693722E3,-2.9525558E2,1.25849724E2,1.530878E3,-2.9059666E3],"categories":[],"categories_nodes":[],"categories_segments":[],"categories_sizes":[],"default_left":[0,0,0,0,0,0,0,0,0,0,0],"id":64,"left_children":[1,3,5,7,9,-1,-1,-1,-1,-1,-1],"loss_changes":[2.2729603E10,2.2263935E10,3.989803E9,1.6049142E10,2.114349E10,0E0,0E0,0E0,0E0,0E0,0E0],"parents":[2147483647,0,0,1,1,2,2,3,3,4,4],"right_children":[2,4,6,8,10,-1,-1,-1,-1,-1,-1],"split_conditions":[5.55E2,4E0,8.14E2,2.92E2,1.15E2,4.8153986E2,4.693722E3,-2.9525558E2,1.25849724E2,1.530878E3,-2.9059666E3],"split_indices":[48,11,0,17,2,0,0,0,0,0,0],"split_type":[0,0,0,0,0,0,0,0,0,0,0],"sum_hessian":[9.5E2,9.47E2,3E0,9.12E2,3.5E1,1E0,2E0,4.11E2,5.01E2,3.3E1,2E0],"tree_param":{"num_deleted":"0","num_feature":"234","num_nodes":"11","size_leaf_vector":"1"}},{"base_weights":[-5.9003834E1,-1.652347E3,1.8020916E4,-3.1469639E3,1.3200034E4,1.2829261E4,6.66214E4,-9.946671E1,-7.6664276E2,4.099444E2,2.5315583E3,1.4198734E2,1.2860486E3,4.4159253E3,-1.5890309E3],"categories":[],"categories_nodes":[],"categories_segments":[],"categories_sizes":[],"default_left":[0,0,0,0,0,0,0,0,0,0,0,0,0,0,0],"id":65,"left_children":[1,3,5,7,9,11,13,-1,-1,-1,-1,-1,-1,-1,-1],"loss_changes":[2.6676732E10,1.8932562E10,1.806907E10,1.0888119E10,1.418637E10,8.812912E9,1.775209E10,0E0,0E0,0E0,0E0,0E0,0E0,0E0,0E0],"parents":[2147483647,0,0,1,1,2,2,3,3,4,4,5,5,6,6],"right_children":[2,4,6,8,10,12,14,-1,-1,-1,-1,-1,-1,-1,-1],"split_conditions":[2E0,1E0,1.902E3,1E0,9.08E2,1.99E3,1.68E2,-9.946671E1,-7.6664276E2,4.099444E2,2.5315583E3,1.4198734E2,1.2860486E3,4.4159253E3,-1.5890309E3],"split_indices":[36,233,21,187,40,9,2,0,0,0,0,0,0,0,0],"split_type":[0,0,0,0,0,0,0,0,0,0,0,0,0,0,0],"sum_hessian":[9.24E2,8.5E2,7.4E1,7.73E2,7.7E1,6.8E1,6E0,7.07E2,6.6E1,6.9E1,8E0,3.9E1,2.9E1,5E0,1E0],"tree_param":{"num_deleted":"0","num_feature":"234","num_nodes":"15","size_leaf_vector":"1"}},{"base_weights":[3.3788733E2,-5.5638706E3,5.948105E3,-9.564586E3,-7.404355E2,2.8880278E3,2.195687E4,-5.271919E2,1.3177693E3,-1.02170654E2,1.1567915E3,-1.21368004E2,3.3506223E2,1.2368439E3,-2.7894492E3],"categories":[],"categories_nodes":[],"categories_segments":[],"categories_sizes":[],"default_left":[0,0,0,0,0,0,0,0,0,0,0,0,0,0,0],"id":66,"left_children":[1,3,5,7,9,11,13,-1,-1,-1,-1,-1,-1,-1,-1],"loss_changes":[3.1454626E10,8.927517E9,2.3793768E10,9.177086E9,6.6115364E9,8.326444E9,1.8238513E10,0E0,0E0,0E0,0E0,0E0,0E0,0E0,0E0],"parents":[2147483647,0,0,1,1,2,2,3,3,4,4,5,5,6,6],"right_children":[2,4,6,8,10,12,14,-1,-1,-1,-1,-1,-1,-1,-1],"split_conditions":[1.993E3,6E0,2.094E3,2E0,3.71E2,2.5E1,1E0,-5.271919E2,1.3177693E3,-1.02170654E2,1.1567915E3,-1.21368004E2,3.3506223E2,1.2368439E3,-2.7894492E3],"split_indices":[9,7,26,27,43,17,79,0,0,0,0,0,0,0,0],"split_type":[0,0,0,0,0,0,0,0,0,0,0,0,0,0,0],"sum_hessian":[9.48E2,4.62E2,4.86E2,2.52E2,2.1E2,4.09E2,7.7E1,2.46E2,6E0,2E2,1E1,1.71E2,2.38E2,7.5E1,2E0],"tree_param":{"num_deleted":"0","num_feature":"234","num_nodes":"15","size_leaf_vector":"1"}},{"base_weights":[5.8151405E1,-2.2419902E2,4.4254287E3,-7.6356665E3,1.9577518E3,-4.0641827E2,2.432729E3,-8.361696E1,3.2140582E2],"categories":[],"categories_nodes":[],"categories_segments":[],"categories_sizes":[],"default_left":[0,0,0,0,0,0,0,0,0],"id":67,"left_children":[1,3,-1,5,7,-1,-1,-1,-1],"loss_changes":[2.3545364E10,1.521612E10,0E0,6.330584E9,1.1808381E10,0E0,0E0,0E0,0E0],"parents":[2147483647,0,0,1,1,3,3,4,4],"right_children":[2,4,-1,6,8,-1,-1,-1,-1],"split_conditions":[5.55E2,7.244E3,4.4254287E3,1.3E2,1E0,-4.0641827E2,2.432729E3,-8.361696E1,3.2140582E2],"split_indices":[48,3,0,46,177,0,0,0,0],"split_type":[0,0,0,0,0,0,0,0,0],"sum_hessian":[9.41E2,9.39E2,2E0,2.13E2,7.26E2,2.12E2,1E0,4.01E2,3.25E2],"tree_param":{"num_deleted":"0","num_feature":"234","num_nodes":"9","size_leaf_vector":"1"}},{"base_weights":[3.0959528E2,-3.105222E3,7.2160835E3,-3.475641E3,2.745042E3,6.338774E3,4.700193E3,-7.8081067E2,-1.2129402E2,2.1683218E2,1.2273542E3],"categories":[],"categories_nodes":[],"categories_segments":[],"categories_sizes":[],"default_left":[0,0,0,0,0,0,0,0,0,0,0],"id":68,"left_children":[1,3,5,7,-1,9,-1,-1,-1,-1,-1],"loss_changes":[2.1885143E10,1.3533966E10,2.2779032E10,7.838339E9,0E0,1.1012447E10,0E0,0E0,0E0,0E0,0E0],"parents":[2147483647,0,0,1,1,2,2,3,3,5,5],"right_children":[2,4,6,8,-1,10,-1,-1,-1,-1,-1],"split_conditions":[5.3E1,8.2E2,1.589E3,5E0,2.745042E3,1E0,4.700193E3,-7.8081067E2,-1.2129402E2,2.1683218E2,1.2273542E3],"split_indices":[44,19,24,7,0,88,0,0,0,0,0],"split_type":[0,0,0,0,0,0,0,0,0,0,0],"sum_hessian":[9.26E2,6.2E2,3.06E2,6.17E2,3E0,3.04E2,2E0,4.8E1,5.69E2,2.75E2,2.9E1],"tree_param":{"num_deleted":"0","num_feature":"234","num_nodes":"11","size_leaf_vector":"1"}},{"base_weights":[3.618021E2,-1.2464932E3,1.5764429E4,-1.6315475E4,-1.5350919E2,1.29611455E4,4.54352E3,-5.147324E2,-1.1549102E3,-3.878392E2,1.1228886E2,9.4010155E1,1.00851105E3],"categories":[],"categories_nodes":[],"categories_segments":[],"categories_sizes":[],"default_left":[0,0,0,0,0,0,0,0,0,0,0,0,0],"id":69,"left_children":[1,3,5,7,9,11,-1,-1,-1,-1,-1,-1,-1],"loss_changes":[2.3057584E10,1.3881837E10,1.7350025E10,2.0899584E9,1.4374214E10,6.832043E9,0E0,0E0,0E0,0E0,0E0,0E0,0E0],"parents":[2147483647,0,0,1,1,2,2,3,3,4,4,5,5],"right_children":[2,4,6,8,10,12,-1,-1,-1,-1,-1,-1,-1],"split_conditions":[1.11E3,5E0,1.796E3,1.958E3,7.244E3,4.8E1,4.54352E3,-5.147324E2,-1.1549102E3,-3.878392E2,1.1228886E2,9.4010155E1,1.00851105E3],"split_indices":[17,7,24,9,3,44,0,0,0,0,0,0,0],"split_type":[0,0,0,0,0,0,0,0,0,0,0,0,0],"sum_hessian":[9.29E2,8.42E2,8.7E1,5.6E1,7.86E2,8.5E1,2E0,3.1E1,2.5E1,1.88E2,5.98E2,3.4E1,5.1E1],"tree_param":{"num_deleted":"0","num_feature":"234","num_nodes":"13","size_leaf_vector":"1"}},{"base_weights":[-2.6511524E1,-4.627105E3,4.253603E3,-1.3097544E4,-2.4086882E3,3.7412952E3,6.5307523E4,-1.02353314E3,-4.3866113E2,-5.3756323E2,8.00019E0,1.35411E2,1.0937443E3,3.5320117E2,4.1183677E3],"categories":[],"categories_nodes":[],"categories_segments":[],"categories_sizes":[],"default_left":[0,0,0,0,0,0,0,0,0,0,0,0,0,0,0],"id":70,"left_children":[1,3,5,7,9,11,13,-1,-1,-1,-1,-1,-1,-1,-1],"loss_changes":[1.8548976E10,8.499548E9,1.5019525E10,2.8174766E9,7.737773E9,9.026439E9,3.3926513E9,0E0,0E0,0E0,0E0,0E0,0E0,0E0,0E0],"parents":[2147483647,0,0,1,1,2,2,3,3,4,4,5,5,6,6],"right_children":[2,4,6,8,10,12,14,-1,-1,-1,-1,-1,-1,-1,-1],"split_conditions":[1E0,1.936E3,5.55E2,6E0,1E0,1E0,8.14E2,-1.02353314E3,-4.3866113E2,-5.3756323E2,8.00019E0,1.35411E2,1.0937443E3,3.5320117E2,4.1183677E3],"split_indices":[36,8,48,7,114,144,0,0,0,0,0,0,0,0,0],"split_type":[0,0,0,0,0,0,0,0,0,0,0,0,0,0,0],"sum_hessian":[9.4E2,4.53E2,4.87E2,9.3E1,3.6E2,4.84E2,3E0,3.3E1,6E1,8.4E1,2.76E2,4.59E2,2.5E1,1E0,2E0],"tree_param":{"num_deleted":"0","num_feature":"234","num_nodes":"15","size_leaf_vector":"1"}},{"base_weights":[1.4400216E1,-4.911523E3,4.2311157E3,-5.5145156E3,2.8339383E4,3.8816519E3,4.5876533E3,-4.7798056E2,-4.8447342E1,3.633881E2,1.9764403E3,1.2646199E2,1.1430181E3],"categories":[],"categories_nodes":[],"categories_segments":[],"categories_sizes":[],"default_left":[0,0,0,0,0,0,0,0,0,0,0,0,0],"id":71,"left_children":[1,3,5,7,9,11,-1,-1,-1,-1,-1,-1,-1],"loss_changes":[1.9815752E10,8.978299E9,1.536493E10,7.952421E9,1.5989478E9,1.3109371E10,0E0,0E0,0E0,0E0,0E0,0E0,0E0],"parents":[2147483647,0,0,1,1,2,2,3,3,4,4,5,5],"right_children":[2,4,6,8,10,12,-1,-1,-1,-1,-1,-1,-1],"split_conditions":[1.991E3,2E0,2.065E3,6E0,6.5E1,2.008E3,4.5876533E3,-4.7798056E2,-4.8447342E1,3.633881E2,1.9764403E3,1.2646199E2,1.1430181E3],"split_indices":[9,27,24,7,2,37,0,0,0,0,0,0,0],"split_type":[0,0,0,0,0,0,0,0,0,0,0,0,0],"sum_hessian":[9.52E2,4.39E2,5.13E2,4.32E2,7E0,5.12E2,1E0,2.28E2,2.04E2,3E0,4E0,4.79E2,3.3E1],"tree_param":{"num_deleted":"0","num_feature":"234","num_nodes":"13","size_leaf_vector":"1"}},{"base_weights":[-4.7792465E2,-6.716573E2,4.4729624E3,-1.4904666E3,2.0215473E4,1.5952031E2,-2.0509827E2,1.2432964E3,-1.1021024E3],"categories":[],"categories_nodes":[],"categories_segments":[],"categories_sizes":[],"default_left":[0,0,0,0,0,0,0,0,0],"id":72,"left_children":[1,3,-1,5,7,-1,-1,-1,-1],"loss_changes":[1.6211918E10,1.5867116E10,0E0,1.0916979E10,7.42618E9,0E0,0E0,0E0,0E0],"parents":[2147483647,0,0,1,1,3,3,4,4],"right_children":[2,4,-1,6,8,-1,-1,-1,-1],"split_conditions":[2.065E3,2.008E3,4.4729624E3,3E0,1E0,1.5952031E2,-2.0509827E2,1.2432964E3,-1.1021024E3],"split_indices":[24,37,0,4,98,0,0,0,0],"split_type":[0,0,0,0,0,0,0,0,0],"sum_hessian":[9.26E2,9.25E2,1E0,8.91E2,3.4E1,3.19E2,5.72E2,3.1E1,3E0],"tree_param":{"num_deleted":"0","num_feature":"234","num_nodes":"9","size_leaf_vector":"1"}},{"base_weights":[4.5802536E1,-1.2342775E3,1.4378728E4,-5.605697E3,2.123937E3,6.22535E3,3.1784988E4,-5.69505E2,-5.9642635E1,7.061517E1,1.0753066E3,1.1144763E1,7.3366113E2,5.1182843E2,2.20158E3],"categories":[],"categories_nodes":[],"categories_segments":[],"categories_sizes":[],"default_left":[0,0,0,0,0,0,0,0,0,0,0,0,0,0,0],"id":73,"left_children":[1,3,5,7,9,11,13,-1,-1,-1,-1,-1,-1,-1,-1],"loss_changes":[1.7007338E10,1.2504724E10,1.0588034E10,9.43091E9,6.617864E9,2.684252E9,5.882751E9,0E0,0E0,0E0,0E0,0E0,0E0,0E0,0E0],"parents":[2147483647,0,0,1,1,2,2,3,3,4,4,5,5,6,6],"right_children":[2,4,6,8,10,12,14,-1,-1,-1,-1,-1,-1,-1,-1],"split_conditions":[2E0,1.974E3,1.4684E4,6E0,1E0,7.96E2,1.709E3,-5.69505E2,-5.9642635E1,7.061517E1,1.0753066E3,1.1144763E1,7.3366113E2,5.1182843E2,2.20158E3],"split_indices":[36,37,3,7,62,0,26,0,0,0,0,0,0,0,0],"split_type":[0,0,0,0,0,0,0,0,0,0,0,0,0,0,0],"sum_hessian":[9.25E2,8.5E2,7.5E1,3.69E2,4.81E2,5.2E1,2.3E1,1.59E2,2.1E2,4.65E2,1.6E1,3.1E1,2.1E1,9E0,1.4E1],"tree_param":{"num_deleted":"0","num_feature":"234","num_nodes":"15","size_leaf_vector":"1"}},{"base_weights":[-1.798754E2,-4.219256E3,3.7912776E3,-4.7509756E3,2.6616162E4,2.3884553E3,2.5900629E4,-4.228483E2,-2.2284933E1,3.589912E2,1.8421E3,8.366394E1,1.6629893E3,-1.00024457E3,1.6104744E3],"categories":[],"categories_nodes":[],"categories_segments":[],"categories_sizes":[],"default_left":[0,0,0,0,0,0,0,0,0,0,0,0,0,0,0],"id":74,"left_children":[1,3,5,7,9,11,13,-1,-1,-1,-1,-1,-1,-1,-1],"loss_changes":[1.4982246E10,7.717705E9,1.4546434E10,7.271854E9,1.3255035E9,9.747177E9,8.753465E9,0E0,0E0,0E0,0E0,0E0,0E0,0E0,0E0],"parents":[2147483647,0,0,1,1,2,2,3,3,4,4,5,5,6,6],"right_children":[2,4,6,8,10,12,14,-1,-1,-1,-1,-1,-1,-1,-1],"split_conditions":[1.993E3,2E0,2E0,6E0,9.303E3,9.28E2,1E0,-4.228483E2,-2.2284933E1,3.589912E2,1.8421E3,8.366394E1,1.6629893E3,-1.00024457E3,1.6104744E3],"split_indices":[9,27,36,7,3,40,99,0,0,0,0,0,0,0,0],"split_type":[0,0,0,0,0,0,0,0,0,0,0,0,0,0,0],"sum_hessian":[9.32E2,4.62E2,4.7E2,4.55E2,7E0,4.43E2,2.7E1,2.44E2,2.11E2,3E0,4E0,4.34E2,9E0,3E0,2.4E1],"tree_param":{"num_deleted":"0","num_feature":"234","num_nodes":"15","size_leaf_vector":"1"}},{"base_weights":[-2.4205862E2,-2.1642358E3,8.143042E3,-9.55084E3,-5.1285065E2,7.219801E3,4.2658374E3,-1.2699778E3,-4.2032797E2,-1.4886394E2,1.8600644E2,3.9297507E2,-2.6181938E3],"categories":[],"categories_nodes":[],"categories_segments":[],"categories_sizes":[],"default_left":[0,0,0,0,0,0,0,0,0,0,0,0,0],"id":75,"left_children":[1,3,5,7,9,11,-1,-1,-1,-1,-1,-1,-1],"loss_changes":[1.5297155E10,9.412057E9,1.1995271E10,2.3435633E9,6.6040197E9,7.119916E9,0E0,0E0,0E0,0E0,0E0,0E0,0E0],"parents":[2147483647,0,0,1,1,2,2,3,3,4,4,5,5],"right_children":[2,4,6,8,10,12,-1,-1,-1,-1,-1,-1,-1],"split_conditions":[1.2358E4,6.24E3,2.065E3,2E0,1E0,1E0,4.2658374E3,-1.2699778E3,-4.2032797E2,-1.4886394E2,1.8600644E2,3.9297507E2,-2.6181938E3],"split_indices":[3,3,24,22,30,110,0,0,0,0,0,0,0],"split_type":[0,0,0,0,0,0,0,0,0,0,0,0,0],"sum_hessian":[9.47E2,7.71E2,1.76E2,1.4E2,6.31E2,1.75E2,1E0,8E0,1.32E2,3.99E2,2.32E2,1.74E2,1E0],"tree_param":{"num_deleted":"0","num_feature":"234","num_nodes":"13","size_leaf_vector":"1"}},{"base_weights":[4.0125534E2,-3.6484397E3,4.611334E3,-6.5472026E3,-2.8318007E1,1.7757971E3,1.2531147E4,-2.9181662E2,-1.2901548E3,-4.3059488E2,9.898512E1,8.891041E2,2.396197E1,4.213085E1,1.0210693E3],"categories":[],"categories_nodes":[],"categories_segments":[],"categories_sizes":[],"default_left":[0,0,0,0,0,0,0,0,0,0,0,0,0,0,0],"id":76,"left_children":[1,3,5,7,9,11,13,-1,-1,-1,-1,-1,-1,-1,-1],"loss_changes":[1.5719443E10,4.9319357E9,1.0128275E10,3.4220892E9,3.6366095E9,6.9230044E9,1.0957603E10,0E0,0E0,0E0,0E0,0E0,0E0,0E0,0E0],"parents":[2147483647,0,0,1,1,2,2,3,3,4,4,5,5,6,6],"right_children":[2,4,6,8,10,12,14,-1,-1,-1,-1,-1,-1,-1,-1],"split_conditions":[1.026E3,3E0,1.855E3,1.456E3,8.94E2,1E0,5.8E1,-2.9181662E2,-1.2901548E3,-4.3059488E2,9.898512E1,8.891041E2,2.396197E1,4.213085E1,1.0210693E3],"split_indices":[21,16,26,23,26,64,44,0,0,0,0,0,0,0,0],"split_type":[0,0,0,0,0,0,0,0,0,0,0,0,0,0,0],"sum_hessian":[9.2E2,4.69E2,4.51E2,2.6E2,2.09E2,3.33E2,1.18E2,2.52E2,8E0,3.9E1,1.7E2,2.4E1,3.09E2,4.8E1,7E1],"tree_param":{"num_deleted":"0","num_feature":"234","num_nodes":"15","size_leaf_vector":"1"}},{"base_weights":[-2.2148456E2,-2.3115889E3,7.2657715E3,-9.740016E3,-1.1580994E3,6.5020957E3,4.1336655E3,-1.0575248E3,-3.9718472E2,-1.897638E2,1.3360954E2,3.8379825E2,-1.4066794E3],"categories":[],"categories_nodes":[],"categories_segments":[],"categories_sizes":[],"default_left":[0,0,0,0,0,0,0,0,0,0,0,0,0],"id":77,"left_children":[1,3,5,7,9,11,-1,-1,-1,-1,-1,-1,-1],"loss_changes":[1.4914783E10,6.3723366E9,1.1440525E10,1.8816758E9,6.5354854E9,8.632107E9,0E0,0E0,0E0,0E0,0E0,0E0,0E0],"parents":[2147483647,0,0,1,1,2,2,3,3,4,4,5,5],"right_children":[2,4,6,8,10,12,-1,-1,-1,-1,-1,-1,-1],"split_conditions":[1.1988E4,5.119E3,2.065E3,8.48E2,4E0,2.65E2,4.1336655E3,-1.0575248E3,-3.9718472E2,-1.897638E2,1.3360954E2,3.8379825E2,-1.4066794E3],"split_indices":[3,3,24,26,16,44,0,0,0,0,0,0,0],"split_type":[0,0,0,0,0,0,0,0,0,0,0,0,0],"sum_hessian":[9.51E2,7.44E2,2.07E2,9.9E1,6.45E2,2.06E2,1E0,1.2E1,8.7E1,3.82E2,2.63E2,2E2,6E0],"tree_param":{"num_deleted":"0","num_feature":"234","num_nodes":"13","size_leaf_vector":"1"}},{"base_weights":[3.8509305E2,1.487147E2,3.617606E3,-8.591711E2,1.5055909E4,-7.610005E1,9.421679E2,4.949432E2,3.3870408E3],"categories":[],"categories_nodes":[],"categories_segments":[],"categories_sizes":[],"default_left":[0,0,0,0,0,0,0,0,0],"id":78,"left_children":[1,3,-1,5,7,-1,-1,-1,-1],"loss_changes":[1.5588735E10,1.3760581E10,0E0,1.1233665E10,1.5087951E10,0E0,0E0,0E0,0E0],"parents":[2147483647,0,0,1,1,3,3,4,4],"right_children":[2,4,-1,6,8,-1,-1,-1,-1],"split_conditions":[5.55E2,1.42E2,3.617606E3,1E0,9E0,-7.610005E1,9.421679E2,4.949432E2,3.3870408E3],"split_indices":[48,47,0,62,6,0,0,0,0],"split_type":[0,0,0,0,0,0,0,0,0],"sum_hessian":[9.16E2,9.14E2,2E0,8.57E2,5.7E1,8.3E2,2.7E1,5.3E1,4E0],"tree_param":{"num_deleted":"0","num_feature":"234","num_nodes":"9","size_leaf_vector":"1"}},{"base_weights":[5.6706854E2,-2.1390039E2,2.2038363E4,-3.8789072E2,3.9398828E3,2.5796336E4,-2.414015E4,-5.3576702E1,9.482557E2,9.766799E2,3.1593208E3,-2.5955118E2,-1.5509602E3],"categories":[],"categories_nodes":[],"categories_segments":[],"categories_sizes":[],"default_left":[0,0,0,0,0,0,0,0,0,0,0,0,0],"id":79,"left_children":[1,3,5,7,-1,9,11,-1,-1,-1,-1,-1,-1],"loss_changes":[1.5767023E10,1.2513064E10,6.3494687E9,1.2020433E10,0E0,6.024833E9,2.3003469E8,0E0,0E0,0E0,0E0,0E0,0E0],"parents":[2147483647,0,0,1,1,2,2,3,3,5,5,6,6],"right_children":[2,4,6,8,-1,10,12,-1,-1,-1,-1,-1,-1],"split_conditions":[2.008E3,5.55E2,1E0,1E0,3.9398828E3,1.441E3,1.162E3,-5.3576702E1,9.482557E2,9.766799E2,3.1593208E3,-2.5955118E2,-1.5509602E3],"split_indices":[37,48,98,144,0,17,0,0,0,0,0,0,0],"split_type":[0,0,0,0,0,0,0,0,0,0,0,0,0],"sum_hessian":[9.39E2,9.07E2,3.2E1,9.06E2,1E0,3E1,2E0,8.76E2,3E1,2.7E1,3E0,1E0,1E0],"tree_param":{"num_deleted":"0","num_feature":"234","num_nodes":"13","size_leaf_vector":"1"}},{"base_weights":[-6.557117E1,-1.7491873E3,1.1352444E4,-4.887275E3,2.5535579E3,9.820508E3,3.3656895E3,-6.103968E2,-1.6597237E2,9.253896E1,1.413632E3,5.7003534E2,-2.7013623E3],"categories":[],"categories_nodes":[],"categories_segments":[],"categories_sizes":[],"default_left":[0,0,0,0,0,0,0,0,0,0,0,0,0],"id":80,"left_children":[1,3,5,7,9,11,-1,-1,-1,-1,-1,-1,-1],"loss_changes":[1.7801646E10,1.090891E10,9.540719E9,5.3194844E9,6.111187E9,1.2420321E10,0E0,0E0,0E0,0E0,0E0,0E0,0E0],"parents":[2147483647,0,0,1,1,2,2,3,3,4,4,5,5],"right_children":[2,4,6,8,10,12,-1,-1,-1,-1,-1,-1,-1],"split_conditions":[1.386E4,4E0,5.55E2,9.9E2,1E0,2.411E3,3.3656895E3,-6.103968E2,-1.6597237E2,9.253896E1,1.413632E3,5.7003534E2,-2.7013623E3],"split_indices":[3,16,48,26,62,23,0,0,0,0,0,0,0],"split_type":[0,0,0,0,0,0,0,0,0,0,0,0,0],"sum_hessian":[9.24E2,8.06E2,1.18E2,4.66E2,3.4E2,1.16E2,2E0,8.1E1,3.85E2,3.32E2,8E0,1.14E2,2E0],"tree_param":{"num_deleted":"0","num_feature":"234","num_nodes":"13","size_leaf_vector":"1"}},{"base_weights":[1.9000159E2,-4.045651E2,2.5973822E4,-2.3897964E3,4.8539453E3,8.888256E3,3.9434993E3,-7.265805E1,-5.968949E2,-8.5221204E2,3.1621152E2,1.2903462E2,1.1755135E3],"categories":[],"categories_nodes":[],"categories_segments":[],"categories_sizes":[],"default_left":[0,0,0,0,0,0,0,0,0,0,0,0,0],"id":81,"left_children":[1,3,5,7,9,11,-1,-1,-1,-1,-1,-1,-1],"loss_changes":[1.4282925E10,9.521857E9,1.8277964E10,5.902977E9,8.156936E9,1.5072252E9,0E0,0E0,0E0,0E0,0E0,0E0,0E0],"parents":[2147483647,0,0,1,1,2,2,3,3,4,4,5,5],"right_children":[2,4,6,8,10,12,-1,-1,-1,-1,-1,-1,-1],"split_conditions":[3E0,1.14E4,1.682E3,1E0,5E0,1.002E3,3.9434993E3,-7.265805E1,-5.968949E2,-8.5221204E2,3.1621152E2,1.2903462E2,1.1755135E3],"split_indices":[29,3,21,187,7,17,0,0,0,0,0,0,0],"split_type":[0,0,0,0,0,0,0,0,0,0,0,0,0],"sum_hessian":[9.3E2,9.1E2,2E1,6.61E2,2.49E2,1.6E1,4E0,6.03E2,5.8E1,1.5E1,2.34E2,1.2E1,4E0],"tree_param":{"num_deleted":"0","num_feature":"234","num_nodes":"13","size_leaf_vector":"1"}},{"base_weights":[-1.4264166E1,-5.745497E2,2.47457E4,-8.0827454E2,3.5880017E3,3.1789871E4,-1.3139492E4,-8.865405E1,5.4175714E2,6.148763E2,1.824036E3,9.240573E1,-1.4525579E3],"categories":[],"categories_nodes":[],"categories_segments":[],"categories_sizes":[],"default_left":[0,0,0,0,0,0,0,0,0,0,0,0,0],"id":82,"left_children":[1,3,5,7,-1,9,11,-1,-1,-1,-1,-1,-1],"loss_changes":[1.316549E10,1.5747129E10,6.021968E9,1.0421567E10,0E0,1.1972198E9,1.00760083E9,0E0,0E0,0E0,0E0,0E0,0E0],"parents":[2147483647,0,0,1,1,2,2,3,3,5,5,6,6],"right_children":[2,4,6,8,-1,10,12,-1,-1,-1,-1,-1,-1],"split_conditions":[2.5419E4,1.81E3,8.98E2,1E0,3.5880017E3,1.194E3,1.196E3,-8.865405E1,5.4175714E2,6.148763E2,1.824036E3,9.240573E1,-1.4525579E3],"split_indices":[3,17,40,225,0,23,0,0,0,0,0,0,0],"split_type":[0,0,0,0,0,0,0,0,0,0,0,0,0],"sum_hessian":[9.47E2,9.27E2,2E1,9.25E2,2E0,1.7E1,3E0,8.55E2,7E1,4E0,1.3E1,2E0,1E0],"tree_param":{"num_deleted":"0","num_feature":"234","num_nodes":"13","size_leaf_vector":"1"}},{"base_weights":[1.8558777E1,-1.1170848E3,1.1387835E4,-1.6839199E3,2.4389625E4,8.471829E3,4.9341938E4,-2.2643858E2,1.03885765E2,3.4800046E2,1.9690139E3,2.4515404E2,1.2727766E3,3.5270137E3,-1.4162438E3],"categories":[],"categories_nodes":[],"categories_segments":[],"categories_sizes":[],"default_left":[0,0,0,0,0,0,0,0,0,0,0,0,0,0,0],"id":83,"left_children":[1,3,5,7,9,11,13,-1,-1,-1,-1,-1,-1,-1,-1],"loss_changes":[1.2368975E10,1.2634075E10,9.210654E9,9.137613E9,4.69026E9,4.845255E9,1.1876487E10,0E0,0E0,0E0,0E0,0E0,0E0,0E0,0E0],"parents":[2147483647,0,0,1,1,2,2,3,3,4,4,5,5,6,6],"right_children":[2,4,6,8,10,12,14,-1,-1,-1,-1,-1,-1,-1,-1],"split_conditions":[2E0,9.08E2,2.121E3,4E0,4.7E1,1E0,1.68E2,-2.2643858E2,1.03885765E2,3.4800046E2,1.9690139E3,2.4515404E2,1.2727766E3,3.5270137E3,-1.4162438E3],"split_indices":[36,40,21,16,44,5,2,0,0,0,0,0,0,0,0],"split_type":[0,0,0,0,0,0,0,0,0,0,0,0,0,0,0],"sum_hessian":[9.56E2,8.7E2,8.6E1,8.52E2,1.8E1,8.1E1,5E0,4.85E2,3.67E2,9E0,9E0,6.8E1,1.3E1,4E0,1E0],"tree_param":{"num_deleted":"0","num_feature":"234","num_nodes":"15","size_leaf_vector":"1"}},{"base_weights":[-2.0683188E2,-3.9632E3,3.1834817E3,-2.2877338E4,-3.2485393E3,2.107991E3,2.5022484E4,-1.0986055E2,-1.4793807E3,-2.4587442E2,2.4121793E2,1.2294376E2,-2.6666304E3,5.7412683E2,3.073596E3],"categories":[],"categories_nodes":[],"categories_segments":[],"categories_sizes":[],"default_left":[0,0,0,0,0,0,0,0,0,0,0,0,0,0,0],"id":84,"left_children":[1,3,5,7,9,11,13,-1,-1,-1,-1,-1,-1,-1,-1],"loss_changes":[1.192009E10,5.9273144E9,1.1503173E10,2.1552998E9,5.8037504E9,9.274155E9,1.0645186E10,0E0,0E0,0E0,0E0,0E0,0E0,0E0,0E0],"parents":[2147483647,0,0,1,1,2,2,3,3,4,4,5,5,6,6],"right_children":[2,4,6,8,10,12,14,-1,-1,-1,-1,-1,-1,-1,-1],"split_conditions":[1.991E3,1.911E3,1.61E2,4.94E2,7E0,1.81E3,2.372E3,-1.0986055E2,-1.4793807E3,-2.4587442E2,2.4121793E2,1.2294376E2,-2.6666304E3,5.7412683E2,3.073596E3],"split_indices":[9,8,47,0,7,17,26,0,0,0,0,0,0,0,0],"split_type":[0,0,0,0,0,0,0,0,0,0,0,0,0,0,0],"sum_hessian":[9.34E2,4.43E2,4.91E2,1.5E1,4.28E2,4.69E2,2.2E1,4E0,1.1E1,3.55E2,7.3E1,4.67E2,2E0,1.7E1,5E0],"tree_param":{"num_deleted":"0","num_feature":"234","num_nodes":"15","size_leaf_vector":"1"}},{"base_weights":[1.0632183E2,-5.930942E2,2.073555E4,-4.590776E3,2.4520454E3,4.304147E4,9.126276E3,-2.681218E2,4.8414865E2,1.0223449E2,3.4831543E3,2.559486E3,3.4828177E2,5.293598E2,-5.0230234E2],"categories":[],"categories_nodes":[],"categories_segments":[],"categories_sizes":[],"default_left":[0,0,0,0,0,0,0,0,0,0,0,0,0,0,0],"id":85,"left_children":[1,3,5,7,9,11,13,-1,-1,-1,-1,-1,-1,-1,-1],"loss_changes":[1.3199867E10,1.0784803E10,7.3758566E9,4.2704701E9,1.3629094E10,2.5829806E9,6.945526E8,0E0,0E0,0E0,0E0,0E0,0E0,0E0,0E0],"parents":[2147483647,0,0,1,1,2,2,3,3,4,4,5,5,6,6],"right_children":[2,4,6,8,10,12,14,-1,-1,-1,-1,-1,-1,-1,-1],"split_conditions":[2.008E3,2.92E2,1E0,1.45E2,1.796E3,2.009E3,1.632E3,-2.681218E2,4.8414865E2,1.0223449E2,3.4831543E3,2.559486E3,3.4828177E2,5.293598E2,-5.0230234E2],"split_indices":[8,17,128,47,24,8,20,0,0,0,0,0,0,0,0],"split_type":[0,0,0,0,0,0,0,0,0,0,0,0,0,0,0],"sum_hessian":[9.13E2,8.84E2,2.9E1,3.82E2,5.02E2,9E0,2E1,3.63E2,1.9E1,5E2,2E0,7E0,2E0,1.9E1,1E0],"tree_param":{"num_deleted":"0","num_feature":"234","num_nodes":"15","size_leaf_vector":"1"}},{"base_weights":[1.14291626E2,-2.932256E1,3.460369E3,-6.9869307E3,1.3346122E3,-8.5526056E2,-2.338015E2,1.0844966E2,-6.2489813E2],"categories":[],"categories_nodes":[],"categories_segments":[],"categories_sizes":[],"default_left":[0,0,0,0,0,0,0,0,0],"id":86,"left_children":[1,3,-1,5,7,-1,-1,-1,-1],"loss_changes":[9.567558E9,9.147929E9,0E0,3.6144256E9,9.329667E9,0E0,0E0,0E0,0E0],"parents":[2147483647,0,0,1,1,3,3,4,4],"right_children":[2,4,-1,6,8,-1,-1,-1,-1],"split_conditions":[2.065E3,1.034E3,3.460369E3,7.68E2,2E0,-8.5526056E2,-2.338015E2,1.0844966E2,-6.2489813E2],"split_indices":[24,26,0,23,32,0,0,0,0],"split_type":[0,0,0,0,0,0,0,0,0],"sum_hessian":[9.63E2,9.62E2,1E0,1.57E2,8.05E2,2.8E1,1.29E2,7.6E2,4.5E1],"tree_param":{"num_deleted":"0","num_feature":"234","num_nodes":"9","size_leaf_vector":"1"}},{"base_weights":[3.219059E2,-7.9112585E2,1.2449929E4,-1.238653E3,2.4860164E4,1.4788942E4,-2.6257197E3,-2.3853752E2,4.250974E1,2.5483922E2,1.5791752E3,5.159622E2,2.6304448E3],"categories":[],"categories_nodes":[],"categories_segments":[],"categories_sizes":[],"default_left":[0,0,0,0,0,0,0,0,0,0,0,0,0],"id":87,"left_children":[1,3,5,7,9,11,-1,-1,-1,-1,-1,-1,-1],"loss_changes":[1.2847279E10,1.0041045E10,1.2932826E10,6.3343923E9,1.8321654E9,1.264253E10,0E0,0E0,0E0,0E0,0E0,0E0,0E0],"parents":[2147483647,0,0,1,1,2,2,3,3,4,4,5,5],"right_children":[2,4,6,8,10,12,-1,-1,-1,-1,-1,-1,-1],"split_conditions":[7.88E2,2.5419E4,1E0,2E0,5.94E2,2.81E3,-2.6257197E3,-2.3853752E2,4.250974E1,2.5483922E2,1.5791752E3,5.159622E2,2.6304448E3],"split_indices":[40,3,61,16,17,26,0,0,0,0,0,0,0],"split_type":[0,0,0,0,0,0,0,0,0,0,0,0,0],"sum_hessian":[9.5E2,8.71E2,7.9E1,8.57E2,1.4E1,7.7E1,2E0,3.18E2,5.39E2,4E0,1E1,7E1,7E0],"tree_param":{"num_deleted":"0","num_feature":"234","num_nodes":"13","size_leaf_vector":"1"}},{"base_weights":[2.1346567E2,7.298408E0,3.2198884E3,-8.3655414E2,1.4650479E4,-1.372402E2,1.9185435E2,4.202862E2,2.6351204E3],"categories":[],"categories_nodes":[],"categories_segments":[],"categories_sizes":[],"default_left":[0,0,0,0,0,0,0,0,0],"id":88,